{"learner":{"attributes":{"scikit_learn":"{\"n_estimators\": 400, \"objective\": \"reg:squarederror\", \"max_depth\": 5, \"learning_rate\": 0.3, \"verbosity\": null, \"booster\": null, \"tree_method\": null, \"gamma\": null, \"min_child_weight\": null, \"max_delta_step\": null, \"subsample\": null, \"colsample_bytree\": null, \"colsample_bylevel\": null, \"colsample_bynode\": null, \"reg_alpha\": null, \"reg_lambda\": null, \"scale_pos_weight\": null, \"base_score\": null, \"missing\": NaN, \"num_parallel_tree\": null, \"kwargs\": {}, \"random_state\": null, \"n_jobs\": null, \"monotone_constraints\": null, \"interaction_constraints\": null, \"importance_type\": \"gain\", \"gpu_id\": null, \"validate_parameters\": null, \"_estimator_type\": \"regressor\"}"},"feature_names":["brand","year","engine_power","fuel_type","wheel","body_type","pts","drive","transmission","engine_volume","owners_count","mileage","height","length","doors_count","width","wheel_base","cylinders_count"],"feature_types":["int","int","float","int","int","int","int","int","int","float","int","float","float","float","int","float","float","int"],"gradient_booster":{"model":{"gbtree_model_param":{"num_trees":"400","size_leaf_vector":"0"},"tree_info":[0,0,0,0,0,0,0,0,0,0,0,0,0,0,0,0,0,0,0,0,0,0,0,0,0,0,0,0,0,0,0,0,0,0,0,0,0,0,0,0,0,0,0,0,0,0,0,0,0,0,0,0,0,0,0,0,0,0,0,0,0,0,0,0,0,0,0,0,0,0,0,0,0,0,0,0,0,0,0,0,0,0,0,0,0,0,0,0,0,0,0,0,0,0,0,0,0,0,0,0,0,0,0,0,0,0,0,0,0,0,0,0,0,0,0,0,0,0,0,0,0,0,0,0,0,0,0,0,0,0,0,0,0,0,0,0,0,0,0,0,0,0,0,0,0,0,0,0,0,0,0,0,0,0,0,0,0,0,0,0,0,0,0,0,0,0,0,0,0,0,0,0,0,0,0,0,0,0,0,0,0,0,0,0,0,0,0,0,0,0,0,0,0,0,0,0,0,0,0,0,0,0,0,0,0,0,0,0,0,0,0,0,0,0,0,0,0,0,0,0,0,0,0,0,0,0,0,0,0,0,0,0,0,0,0,0,0,0,0,0,0,0,0,0,0,0,0,0,0,0,0,0,0,0,0,0,0,0,0,0,0,0,0,0,0,0,0,0,0,0,0,0,0,0,0,0,0,0,0,0,0,0,0,0,0,0,0,0,0,0,0,0,0,0,0,0,0,0,0,0,0,0,0,0,0,0,0,0,0,0,0,0,0,0,0,0,0,0,0,0,0,0,0,0,0,0,0,0,0,0,0,0,0,0,0,0,0,0,0,0,0,0,0,0,0,0,0,0,0,0,0,0,0,0,0,0,0,0,0,0,0,0,0,0,0,0,0,0,0,0,0,0,0,0,0,0,0,0,0,0,0,0,0,0,0,0,0,0,0,0,0,0,0,0,0,0,0,0,0,0],"trees":[{"base_weights":[7.2586425E5,4.6681897E5,1.7962621E6,3.085667E5,8.270785E5,1.1293298E6,3.285563E6,2.0139105E5,4.8887478E5,6.489445E5,1.4427645E6,7.60495E5,1.5631149E6,2.8522982E6,6.2770045E6,3.0229855E6,1.9972277E5,5.1834145E6,4.8397094E5,5.0872272E5,8.218296E5,1.2148512E6,1.7348108E6,2.5658895E6,7.1732725E5,1.3694384E6,2.5657872E6,2.2441548E6,3.8762902E6,9.646285E6,5.180671E6,1.4439406E6,4.8324335E6,1.3852805E5,2.6999475E5,3.7426262E6,1.2589408E7,3.8179522E5,6.30474E5,3.9198806E5,6.102926E5,7.0982094E5,9.840563E5,1.168177E6,1.9882172E6,1.6533314E6,2.397522E6,1.3285185E6,5.2607285E6,6.405656E5,1.1471598E6,1.1799962E6,1.7499944E6,9.699684E6,2.4717805E6,2.1627165E6,3.6484172E6,3.4643612E6,5.44292E6,8.0776265E6,1.3453E7,6.232056E6,4.3681175E6],"categories":[],"categories_nodes":[],"categories_segments":[],"categories_sizes":[],"default_left":[true,true,true,true,true,true,true,true,true,true,true,true,true,true,true,true,true,true,true,true,true,true,true,true,true,true,true,true,true,true,true,false,false,false,false,false,false,false,false,false,false,false,false,false,false,false,false,false,false,false,false,false,false,false,false,false,false,false,false,false,false,false,false],"id":0,"left_children":[1,3,5,7,9,11,13,15,17,19,21,23,25,27,29,31,33,35,37,39,41,43,45,47,49,51,53,55,57,59,61,-1,-1,-1,-1,-1,-1,-1,-1,-1,-1,-1,-1,-1,-1,-1,-1,-1,-1,-1,-1,-1,-1,-1,-1,-1,-1,-1,-1,-1,-1,-1,-1],"loss_changes":[8.167466E16,1.3520918E16,5.700461E16,3.1842544E15,7.9376407E15,6.3416524E15,2.2990204E16,4.8589233E14,1.4117139E15,1.360592E15,1.07897954E15,1.668147E15,3.5341224E15,9.648661E15,8.2427294E15,1.6731139E14,4.441466E14,6.3579246E14,9.1838E14,3.6734265E14,4.5613304E14,3.2709182E14,3.8033653E14,1.6602687E15,6.898104E14,1.09879866E15,1.9530569E15,1.1050693E15,3.7092712E15,3.1756215E15,1.4216857E15,0E0,0E0,0E0,0E0,0E0,0E0,0E0,0E0,0E0,0E0,0E0,0E0,0E0,0E0,0E0,0E0,0E0,0E0,0E0,0E0,0E0,0E0,0E0,0E0,0E0,0E0,0E0,0E0,0E0,0E0,0E0,0E0],"parents":[2147483647,0,0,1,1,2,2,3,3,4,4,5,5,6,6,7,7,8,8,9,9,10,10,11,11,12,12,13,13,14,14,15,15,16,16,17,17,18,18,19,19,20,20,21,21,22,22,23,23,24,24,25,25,26,26,27,27,28,28,29,29,30,30],"right_children":[2,4,6,8,10,12,14,16,18,20,22,24,26,28,30,32,34,36,38,40,42,44,46,48,50,52,54,56,58,60,62,-1,-1,-1,-1,-1,-1,-1,-1,-1,-1,-1,-1,-1,-1,-1,-1,-1,-1,-1,-1,-1,-1,-1,-1,-1,-1,-1,-1,-1,-1,-1,-1],"split_conditions":[1.745E2,2.0125E3,2.0145E3,1.7525E3,1.435E2,2.0095E3,3.385E2,1.9435E3,1.9555E3,1.095E2,2.0165E3,5.9914E4,3.9E0,1.8905E3,1.7099E4,1.61E3,1.6825E3,1.135E2,2.0085E3,2.5285E3,2.0165E3,1.8425E3,5E-1,4.6499996E0,4.45E0,1.8925E3,1.65775E4,1.84E3,2.0185E3,5.335E2,4.9218E4,4.3318222E5,1.4497301E6,4.1558414E4,8.099843E4,1.1227879E6,3.7768225E6,1.1453857E5,1.891422E5,1.1759642E5,1.830878E5,2.129463E5,2.952169E5,3.5045312E5,5.964652E5,4.9599944E5,7.192566E5,3.9855556E5,1.5782186E6,1.9216969E5,3.4414794E5,3.5399888E5,5.249983E5,2.9099052E6,7.415342E5,6.48815E5,1.0945252E6,1.03930844E6,1.6328761E6,2.423288E6,4.0359002E6,1.8696169E6,1.3104352E6],"split_indices":[2,1,1,15,2,1,2,1,1,2,1,11,9,15,11,15,15,2,1,16,1,12,3,9,9,15,11,12,1,2,11,0,0,0,0,0,0,0,0,0,0,0,0,0,0,0,0,0,0,0,0,0,0,0,0,0,0,0,0,0,0,0,0],"split_type":[0,0,0,0,0,0,0,0,0,0,0,0,0,0,0,0,0,0,0,0,0,0,0,0,0,0,0,0,0,0,0,0,0,0,0,0,0,0,0,0,0,0,0,0,0,0,0,0,0,0,0,0,0,0,0,0,0,0,0,0,0,0,0],"sum_hessian":[2.94557E5,2.37163E5,5.7394E4,1.64781E5,7.2382E4,3.9643E4,1.7751E4,1.03351E5,6.143E4,5.6141E4,1.6241E4,2.1427E4,1.8216E4,1.5507E4,2.244E3,6E1,1.03291E5,6.3E1,6.1367E4,3.1001E4,2.514E4,9.125E3,7.116E3,4.99E2,2.0928E4,1.5269E4,2.947E3,9.731E3,5.776E3,5.49E2,1.695E3,3.3E1,2.7E1,5.5213E4,4.8078E4,5.4E1,9E0,3.6155E4,2.5212E4,1.4426E4,1.6575E4,1.4875E4,1.0265E4,8.608E3,5.17E2,6.34E3,7.76E2,3.43E2,1.56E2,1.7759E4,3.169E3,1.0197E4,5.072E3,3.7E1,2.91E3,9.2E3,5.31E2,4.576E3,1.2E3,3.91E2,1.58E2,7.36E2,9.59E2],"tree_param":{"num_deleted":"0","num_feature":"18","num_nodes":"63","size_leaf_vector":"0"}},{"base_weights":[5.0821116E5,3.2270456E5,1.2834284E6,2.2652756E5,6.293082E5,7.5499625E5,2.0900924E6,1.6677212E5,4.2072744E5,4.6327544E5,1.046788E6,7.3486944E5,3.4129468E6,1.4538609E6,3.1348978E6,9.468486E4,2.3378014E5,2.6246775E5,5.5247544E5,4.1043706E5,6.581503E5,9.1081244E5,1.3341964E6,6.274805E5,1.0474211E6,5.2486365E6,8.953948E5,1.2242709E6,1.9055244E6,4.8758735E6,2.5944268E6,5.8769655E6,9.338193E4,2.9190538E6,2.3145306E5,2.45348E5,1.4708479E6,5.4221175E5,2.82965E6,3.0834912E5,4.6394803E5,5.5096294E5,8.133934E5,9.0214906E5,3.84251E6,1.2312656E6,1.8757711E6,1.2476426E6,5.8588406E5,7.346576E5,1.4246565E6,4.0802708E6,8.802665E6,6.831378E6,7.222157E5,1.0761135E6,1.6977535E6,2.3660848E6,1.6403926E6,4.0627288E6,7.690334E6,2.286917E6,3.4435168E6],"categories":[],"categories_nodes":[],"categories_segments":[],"categories_sizes":[],"default_left":[true,true,true,true,true,true,true,true,true,true,true,true,true,true,true,true,true,true,true,true,true,true,true,true,true,true,true,true,true,true,true,false,false,false,false,false,false,false,false,false,false,false,false,false,false,false,false,false,false,false,false,false,false,false,false,false,false,false,false,false,false,false,false],"id":1,"left_children":[1,3,5,7,9,11,13,15,17,19,21,23,25,27,29,31,33,35,37,39,41,43,45,47,49,51,53,55,57,59,61,-1,-1,-1,-1,-1,-1,-1,-1,-1,-1,-1,-1,-1,-1,-1,-1,-1,-1,-1,-1,-1,-1,-1,-1,-1,-1,-1,-1,-1,-1,-1,-1],"loss_changes":[4.2359355E16,7.008706E15,2.4242788E16,2.0995325E15,3.9334363E15,1.8359396E15,1.4959354E16,6.683106E14,8.874981E14,4.178547E14,6.29858E14,1.1441965E15,1.1876328E15,1.4487054E15,8.0032764E15,5.016258E14,4.4739654E14,3.9977046E14,5.4142572E14,1.7438319E14,1.4365538E14,2.7502608E14,2.8666974E14,6.5421693E14,1.02790486E15,5.827911E14,1.0814499E14,6.491639E14,5.7174175E14,4.5847917E15,1.6900782E15,0E0,0E0,0E0,0E0,0E0,0E0,0E0,0E0,0E0,0E0,0E0,0E0,0E0,0E0,0E0,0E0,0E0,0E0,0E0,0E0,0E0,0E0,0E0,0E0,0E0,0E0,0E0,0E0,0E0,0E0,0E0,0E0],"parents":[2147483647,0,0,1,1,2,2,3,3,4,4,5,5,6,6,7,7,8,8,9,9,10,10,11,11,12,12,13,13,14,14,15,15,16,16,17,17,18,18,19,19,20,20,21,21,22,22,23,23,24,24,25,25,26,26,27,27,28,28,29,29,30,30],"right_children":[2,4,6,8,10,12,14,16,18,20,22,24,26,28,30,32,34,36,38,40,42,44,46,48,50,52,54,56,58,60,62,-1,-1,-1,-1,-1,-1,-1,-1,-1,-1,-1,-1,-1,-1,-1,-1,-1,-1,-1,-1,-1,-1,-1,-1,-1,-1,-1,-1,-1,-1,-1,-1],"split_conditions":[1.8415E3,2.0135E3,2.0135E3,1.395E2,1.355E2,7.4E1,2.475E2,1.4515E3,2.0065E3,1.772E3,2.0175E3,2.0115E3,8.20905E4,1.89E2,2.89985E4,1.9615E3,1.9425E3,2.93E2,3.485E2,2.506E3,2.0165E3,1.928E3,1.83E2,1E0,2.9E0,3.2205E3,1.9615E3,5E-1,4.60875E4,4.15E2,7E0,1.7630898E6,2.801458E4,8.757162E5,6.943592E4,7.360441E4,4.4125438E5,1.6266353E5,8.4889506E5,9.250474E4,1.3918442E5,1.6528889E5,2.4401802E5,2.7064472E5,1.152753E6,3.693797E5,5.627314E5,3.742928E5,1.7576522E5,2.203973E5,4.2739697E5,1.2240812E6,2.6407995E6,2.0494135E6,2.1666472E5,3.2283406E5,5.0932606E5,7.0982544E5,4.921178E5,1.2188186E6,2.3071002E6,6.860751E5,1.03305506E6],"split_indices":[15,1,1,2,2,0,2,12,1,15,1,1,11,2,11,1,1,2,2,16,1,12,2,0,9,16,1,3,11,2,17,0,0,0,0,0,0,0,0,0,0,0,0,0,0,0,0,0,0,0,0,0,0,0,0,0,0,0,0,0,0,0,0],"split_type":[0,0,0,0,0,0,0,0,0,0,0,0,0,0,0,0,0,0,0,0,0,0,0,0,0,0,0,0,0,0,0,0,0,0,0,0,0,0,0,0,0,0,0,0,0,0,0,0,0,0,0,0,0,0,0,0,0,0,0,0,0,0,0],"sum_hessian":[2.94557E5,2.37682E5,5.6875E4,1.80929E5,5.6753E4,3.4365E4,2.251E4,1.38358E5,4.2571E4,4.0606E4,1.6147E4,3.4108E4,2.57E2,1.3992E4,8.518E3,6.6654E4,7.1704E4,1.9341E4,2.323E4,3.1947E4,8.659E3,1.0964E4,5.183E3,2.5388E4,8.72E3,1.48E2,1.09E2,9.279E3,4.713E3,2.016E3,6.502E3,1.4E1,6.664E4,6.1E1,7.1643E4,1.9072E4,2.69E2,2.3127E4,1.03E2,1.0989E4,2.0958E4,5.125E3,3.534E3,1.0933E4,3.1E1,4.358E3,8.25E2,1.594E3,2.3794E4,4.769E3,3.951E3,1.13E2,3.5E1,2E0,1.07E2,7.07E3,2.209E3,1.719E3,2.994E3,1.566E3,4.5E2,4.776E3,1.726E3],"tree_param":{"num_deleted":"0","num_feature":"18","num_nodes":"63","size_leaf_vector":"0"}},{"base_weights":[3.5582203E5,2.664263E5,1.1620104E6,1.8674558E5,5.696744E5,2.4911018E6,7.665338E5,1.3470489E5,3.692274E5,3.4767697E5,9.175699E5,2.396243E6,9.102993E6,5.3691625E5,1.3148508E6,1.0942274E6,1.3047488E5,2.0519764E5,5.0062716E5,3.1035206E5,4.8369428E5,8.1578844E5,1.482863E6,2.1626832E6,4.1278835E6,2.1646835E6,1.0924346E7,4.7810666E5,1.02687744E6,1.1233272E6,1.9202049E6,8.5075906E5,7.7994E6,5.9417066E4,1.9091506E5,3.4792058E6,1.977468E5,3.5497788E5,6.057661E5,2.5969405E5,3.9106325E5,6.0377856E5,3.3804662E5,7.911026E5,1.6960641E6,1.1463484E6,1.8765994E6,1.6068684E6,2.875068E6,6.605196E6,3.6109905E6,3.1434268E6,9.8915094E5,1.1444778E7,6.3970655E6,3.1763156E5,5.991444E5,1.2847084E6,7.2109894E5,9.272105E5,1.517919E6,1.6294939E6,2.5106538E6],"categories":[],"categories_nodes":[],"categories_segments":[],"categories_sizes":[],"default_left":[true,true,true,true,true,true,true,true,true,true,true,true,true,true,true,true,true,true,true,true,true,true,true,true,true,true,true,true,true,true,true,false,false,false,false,false,false,false,false,false,false,false,false,false,false,false,false,false,false,false,false,false,false,false,false,false,false,false,false,false,false,false,false],"id":2,"left_children":[1,3,5,7,9,11,13,15,17,19,21,23,25,27,29,31,33,35,37,39,41,43,45,47,49,51,53,55,57,59,61,-1,-1,-1,-1,-1,-1,-1,-1,-1,-1,-1,-1,-1,-1,-1,-1,-1,-1,-1,-1,-1,-1,-1,-1,-1,-1,-1,-1,-1,-1,-1,-1],"loss_changes":[2.122843E16,6.406891E15,1.5452506E16,1.9940599E15,4.260876E15,4.20674E15,2.8523855E15,6.630227E14,1.0041811E15,1.70853E14,1.2353614E15,2.679802E15,1.1768774E15,4.5979074E14,7.7324766E14,1.1638651E15,6.9863227E14,5.04905E14,3.9594283E14,1.07974136E14,1.26615904E14,3.9447664E14,4.3217786E14,2.3156703E15,9.864681E14,2.1052118E13,1.0349744E14,2.7686675E14,1.3396755E14,3.9194583E14,2.7157884E14,0E0,0E0,0E0,0E0,0E0,0E0,0E0,0E0,0E0,0E0,0E0,0E0,0E0,0E0,0E0,0E0,0E0,0E0,0E0,0E0,0E0,0E0,0E0,0E0,0E0,0E0,0E0,0E0,0E0,0E0,0E0,0E0],"parents":[2147483647,0,0,1,1,2,2,3,3,4,4,5,5,6,6,7,7,8,8,9,9,10,10,11,11,12,12,13,13,14,14,15,15,16,16,17,17,18,18,19,19,20,20,21,21,22,22,23,23,24,24,25,25,26,26,27,27,28,28,29,29,30,30],"right_children":[2,4,6,8,10,12,14,16,18,20,22,24,26,28,30,32,34,36,38,40,42,44,46,48,50,52,54,56,58,60,62,-1,-1,-1,-1,-1,-1,-1,-1,-1,-1,-1,-1,-1,-1,-1,-1,-1,-1,-1,-1,-1,-1,-1,-1,-1,-1,-1,-1,-1,-1,-1,-1],"split_conditions":[2.345E2,2.0145E3,6.96495E4,1.455E2,1.355E2,1.9685E3,2.0125E3,1.9605E3,2.0075E3,1.7725E3,2.8505E3,4.555E2,2.017E3,1.8885E3,1.8265E3,9.35E1,9.45E1,1.9775E3,5E-1,2.0175E3,1.7E1,2.75E0,2.0175E3,1.9315E3,8.078E3,3.145E2,3.9E1,2.0075E3,2.865E3,5E-1,2.0155E3,2.5522773E5,2.33982E6,1.7825121E4,5.727452E4,1.04376175E6,5.9324043E4,1.0649337E5,1.8172984E5,7.790822E4,1.1731898E5,1.8113358E5,1.0141399E5,2.373308E5,5.0881925E5,3.4390453E5,5.629798E5,4.8206053E5,8.6252044E5,1.9815589E6,1.0832972E6,9.4302806E5,2.9674528E5,3.4334335E6,1.9191198E6,9.528947E4,1.7974331E5,3.8541253E5,2.1632969E5,2.7816316E5,4.5537572E5,4.888482E5,7.531961E5],"split_indices":[2,1,11,2,2,12,1,1,1,15,16,2,1,12,12,2,2,1,7,1,0,9,1,15,11,2,0,1,16,3,1,0,0,0,0,0,0,0,0,0,0,0,0,0,0,0,0,0,0,0,0,0,0,0,0,0,0,0,0,0,0,0,0],"split_type":[0,0,0,0,0,0,0,0,0,0,0,0,0,0,0,0,0,0,0,0,0,0,0,0,0,0,0,0,0,0,0,0,0,0,0,0,0,0,0,0,0,0,0,0,0,0,0,0,0,0,0,0,0,0,0,0,0,0,0,0,0,0,0],"sum_hessian":[2.94557E5,2.65156E5,2.9401E4,2.09983E5,5.5173E4,6.741E3,2.266E4,1.63389E5,4.6594E4,3.3682E4,2.1491E4,6.647E3,9.4E1,1.5973E4,6.687E3,7.16E2,1.62673E5,2.0725E4,2.5869E4,2.6432E4,7.25E3,1.8214E4,3.277E3,5.859E3,7.88E2,2E1,7.4E1,1.4263E4,1.71E3,5.082E3,1.605E3,6.92E2,2.4E1,7.477E4,8.7903E4,4.6E1,2.0679E4,1.0847E4,1.5022E4,1.6242E4,1.019E4,3.972E3,3.278E3,1.7719E4,4.95E2,1.769E3,1.508E3,3.293E3,2.566E3,1.34E2,6.54E2,1E1,1E1,6.5E1,9E0,6.134E3,8.129E3,9.26E2,7.84E2,3.397E3,1.685E3,1.078E3,5.27E2],"tree_param":{"num_deleted":"0","num_feature":"18","num_nodes":"63","size_leaf_vector":"0"}},{"base_weights":[2.4914348E5,1.4792633E5,6.081282E5,7.068251E4,2.5394819E5,3.952909E5,1.1573262E6,1.0975082E6,6.820416E4,1.5776461E5,3.4106262E5,3.699397E5,1.4255408E6,7.874087E5,1.9769751E6,2.2714245E6,6.768058E5,2.8813398E4,1.1343318E5,1.4851128E5,5.509432E5,3.1233253E5,7.472826E5,8.0613525E5,3.3542322E5,7.0626915E6,1.2852406E6,6.685308E5,1.125962E6,4.2991085E6,1.7810696E6,1.6202766E6,1.0466302E7,5.952532E5,5.278433E6,4.524846E6,2.8305496E4,1.0196233E7,1.121245E5,1.1084871E5,1.9297702E5,4.217206E5,7.8229144E5,3.0980306E5,3.3034885E6,7.0971425E5,2.4038988E6,6.714121E5,1.1647586E6,3.3324303E5,6.8861395E6,4.0641102E6,1.2608286E7,1.1737915E6,5.490327E6,7.170452E5,4.1513445E4,3.208581E6,1.0809606E6,3.0268118E6,5.610769E6,1.7386481E6,7.0661945E6],"categories":[],"categories_nodes":[],"categories_segments":[],"categories_sizes":[],"default_left":[true,true,true,true,true,true,true,true,true,true,true,true,true,true,true,true,true,true,true,true,true,true,true,true,true,true,true,true,true,true,true,false,false,false,false,false,false,false,false,false,false,false,false,false,false,false,false,false,false,false,false,false,false,false,false,false,false,false,false,false,false,false,false],"id":3,"left_children":[1,3,5,7,9,11,13,15,17,19,21,23,25,27,29,31,33,35,37,39,41,43,45,47,49,51,53,55,57,59,61,-1,-1,-1,-1,-1,-1,-1,-1,-1,-1,-1,-1,-1,-1,-1,-1,-1,-1,-1,-1,-1,-1,-1,-1,-1,-1,-1,-1,-1,-1,-1,-1],"loss_changes":[1.0702794E16,1.881724E15,7.5722507E15,3.3820827E14,8.114165E14,1.2189783E15,5.4845895E15,1.5650092E14,2.3625541E14,1.6738145E14,5.928499E14,6.858585E14,8.775136E14,5.0108095E14,2.5517152E15,4.3127223E14,8.579812E13,1.6173194E14,8.1339574E14,7.529299E13,3.129944E13,3.58087E14,2.0715902E14,1.6063809E14,6.0085465E14,3.977392E14,5.067307E14,2.807714E14,3.0009232E14,7.122919E14,1.1513304E15,0E0,0E0,0E0,0E0,0E0,0E0,0E0,0E0,0E0,0E0,0E0,0E0,0E0,0E0,0E0,0E0,0E0,0E0,0E0,0E0,0E0,0E0,0E0,0E0,0E0,0E0,0E0,0E0,0E0,0E0,0E0,0E0],"parents":[2147483647,0,0,1,1,2,2,3,3,4,4,5,5,6,6,7,7,8,8,9,9,10,10,11,11,12,12,13,13,14,14,15,15,16,16,17,17,18,18,19,19,20,20,21,21,22,22,23,23,24,24,25,25,26,26,27,27,28,28,29,29,30,30],"right_children":[2,4,6,8,10,12,14,16,18,20,22,24,26,28,30,32,34,36,38,40,42,44,46,48,50,52,54,56,58,60,62,-1,-1,-1,-1,-1,-1,-1,-1,-1,-1,-1,-1,-1,-1,-1,-1,-1,-1,-1,-1,-1,-1,-1,-1,-1,-1,-1,-1,-1,-1,-1,-1],"split_conditions":[1.8385E3,2.0105E3,2.0155E3,1.0235E3,1.095E2,4.525E2,2.85E0,1.9605E3,1.015E2,5E-1,2.7975E3,1E0,1.2765E3,2.8615E3,3.8495E3,6.5E1,5.25E0,1.9355E3,1.9625E3,2.5E0,2.69E3,3.6999998E0,1.918E3,1.968E3,2.25E1,4.5775E3,6.5E0,1.895E3,2.175E2,1.85E1,1.9685E3,4.86083E5,3.1398908E6,1.7857597E5,1.58353E6,1.3574539E6,8.491649E3,3.05887E6,3.363735E4,3.3254613E4,5.7893105E4,1.2651618E5,2.3468744E5,9.294092E4,9.9104656E5,2.1291428E5,7.211696E5,2.0142364E5,3.494276E5,9.9972914E4,2.0658419E6,1.2192331E6,3.782486E6,3.5213747E5,1.6470981E6,2.1511356E5,1.2454034E4,9.625743E5,3.242882E5,9.0804356E5,1.6832308E6,5.2159447E5,2.1198585E6],"split_indices":[15,1,1,11,2,2,9,1,2,3,16,0,12,16,11,2,9,1,1,0,16,9,12,15,5,13,9,12,11,0,12,0,0,0,0,0,0,0,0,0,0,0,0,0,0,0,0,0,0,0,0,0,0,0,0,0,0,0,0,0,0,0,0],"split_type":[0,0,0,0,0,0,0,0,0,0,0,0,0,0,0,0,0,0,0,0,0,0,0,0,0,0,0,0,0,0,0,0,0,0,0,0,0,0,0,0,0,0,0,0,0,0,0,0,0,0,0,0,0,0,0,0,0,0,0,0,0,0,0],"sum_hessian":[2.94557E5,2.29773E5,6.4784E4,1.32928E5,9.6845E4,4.6691E4,1.8093E4,3.19E2,1.32609E5,4.6028E4,5.0817E4,4.5571E4,1.12E3,1.2468E4,5.625E3,8.3E1,2.36E2,7.088E4,6.1729E4,4.4971E4,1.057E3,4.7462E4,3.355E3,3.34E3,4.2231E4,2.6E1,1.094E3,9.23E3,3.238E3,4.36E2,5.189E3,7.8E1,5E0,2.33E2,3E0,7E0,7.0873E4,7E0,6.1722E4,2.435E4,2.0621E4,6.8E2,3.77E2,4.7423E4,3.9E1,3.282E3,7.3E1,2.43E3,9.1E2,4.2218E4,1.3E1,1.8E1,8E0,1.067E3,2.7E1,8.567E3,6.63E2,6.7E1,3.171E3,2.23E2,2.13E2,5.149E3,4E1],"tree_param":{"num_deleted":"0","num_feature":"18","num_nodes":"63","size_leaf_vector":"0"}},{"base_weights":[1.7449814E5,1.3068877E5,6.282891E5,6.025768E4,2.4167938E5,1.5893298E6,4.5061194E5,2.8634172E4,1.3521173E5,1.5100469E5,4.2010338E5,1.0578104E6,2.2790998E6,7.7859594E5,2.9947062E5,2.0091948E6,2.7896814E4,1.3116664E5,2.0084985E6,1.3929008E5,4.441043E5,2.5047444E5,5.4385606E5,6.515517E5,1.8434158E6,1.8895171E6,3.8772385E6,6.53411E5,1.3208172E6,2.378474E5,6.3645975E5,4.642235E5,4.8621925E6,-7.4131313E3,6.4653996E4,9.929703E5,1.2676707E5,4.2158175E6,8.920947E5,1.2267066E5,3.121611E5,3.5355638E5,7.354836E5,2.0593706E5,5.149333E5,7.664135E5,4.163405E5,4.5373297E5,1.5032212E6,1.5877429E6,3.2206475E6,1.4419438E6,2.5903458E6,3.013705E6,5.8141025E6,6.113759E5,2.0725418E6,1.7230718E6,8.148275E5,1.8502945E5,4.9853378E5,4.6917753E5,7.4776394E5],"categories":[],"categories_nodes":[],"categories_segments":[],"categories_sizes":[],"default_left":[true,true,true,true,true,true,true,true,true,true,true,true,true,true,true,true,true,true,true,true,true,true,true,true,true,true,true,true,true,true,true,false,false,false,false,false,false,false,false,false,false,false,false,false,false,false,false,false,false,false,false,false,false,false,false,false,false,false,false,false,false,false,false],"id":4,"left_children":[1,3,5,7,9,11,13,15,17,19,21,23,25,27,29,31,33,35,37,39,41,43,45,47,49,51,53,55,57,59,61,-1,-1,-1,-1,-1,-1,-1,-1,-1,-1,-1,-1,-1,-1,-1,-1,-1,-1,-1,-1,-1,-1,-1,-1,-1,-1,-1,-1,-1,-1,-1,-1],"loss_changes":[5.8558185E15,2.0998863E15,4.4274735E15,3.8953763E14,1.6871152E15,1.4809584E15,1.0847971E15,1.6873467E14,3.6924424E14,2.3735788E14,7.375033E14,7.2871556E14,1.08846175E15,4.6776623E14,3.1103254E14,1.8727826E14,1.4995657E14,1.8436818E14,2.5498637E14,1.9099129E14,6.984167E13,1.7449553E14,5.7623966E14,2.535485E14,2.6918869E14,4.407388E14,5.578341E14,3.3344757E14,2.619726E14,1.7435997E14,4.2771298E13,0E0,0E0,0E0,0E0,0E0,0E0,0E0,0E0,0E0,0E0,0E0,0E0,0E0,0E0,0E0,0E0,0E0,0E0,0E0,0E0,0E0,0E0,0E0,0E0,0E0,0E0,0E0,0E0,0E0,0E0,0E0,0E0],"parents":[2147483647,0,0,1,1,2,2,3,3,4,4,5,5,6,6,7,7,8,8,9,9,10,10,11,11,12,12,13,13,14,14,15,15,16,16,17,17,18,18,19,19,20,20,21,21,22,22,23,23,24,24,25,25,26,26,27,27,28,28,29,29,30,30],"right_children":[2,4,6,8,10,12,14,16,18,20,22,24,26,28,30,32,34,36,38,40,42,44,46,48,50,52,54,56,58,60,62,-1,-1,-1,-1,-1,-1,-1,-1,-1,-1,-1,-1,-1,-1,-1,-1,-1,-1,-1,-1,-1,-1,-1,-1,-1,-1,-1,-1,-1,-1,-1,-1],"split_conditions":[2.445E2,2.0115E3,4.59955E4,1.5115E3,1.435E2,1.85E1,1.10958E5,1.9635E3,5.525E3,5E-1,5E-1,5E-1,5.21E2,1.832E3,5E-1,5.55E1,2.0055E3,1.55E3,3.25E4,2.0185E3,1.8155E3,2.0185E3,6.621E4,1.804E3,5.109E3,2.0185E3,2.0185E3,5.2305E3,2.9225E3,1.8445E3,1.9335E3,1.3926706E5,1.4586578E6,-2.2239395E3,1.93962E4,2.978911E5,3.803012E4,1.2647452E6,2.676284E5,3.68012E4,9.364833E4,1.06066914E5,2.206451E5,6.178112E4,1.5448E5,2.2992406E5,1.2490216E5,1.3611989E5,4.509664E5,4.7632288E5,9.661943E5,4.3258316E5,7.7710375E5,9.0411156E5,1.7442309E6,1.8341277E5,6.2176256E5,5.1692153E5,2.4444827E5,5.550884E4,1.4956014E5,1.4075327E5,2.2432919E5],"split_indices":[2,1,11,12,2,0,11,1,13,3,7,3,2,12,3,2,1,11,11,1,12,1,11,12,13,1,1,13,16,12,15,0,0,0,0,0,0,0,0,0,0,0,0,0,0,0,0,0,0,0,0,0,0,0,0,0,0,0,0,0,0,0,0],"split_type":[0,0,0,0,0,0,0,0,0,0,0,0,0,0,0,0,0,0,0,0,0,0,0,0,0,0,0,0,0,0,0,0,0,0,0,0,0,0,0,0,0,0,0,0,0,0,0,0,0,0,0,0,0,0,0,0,0,0,0,0,0,0,0],"sum_hessian":[2.94557E5,2.68625E5,2.5932E4,1.64341E5,1.04284E5,4.045E3,2.1887E4,1.15579E5,4.8762E4,6.9146E4,3.5138E4,2.286E3,1.759E3,6.903E3,1.4984E4,4.2E1,1.15537E5,4.8658E4,1.04E2,6.649E4,2.656E3,1.4823E4,2.0315E4,1.508E3,7.78E2,1.416E3,3.43E2,5.61E3,1.293E3,1.2669E4,2.315E3,2.8E1,1.4E1,5.8929E4,5.6608E4,2.46E2,4.8412E4,3.4E1,7E1,6.066E4,5.83E3,2.028E3,6.28E2,1.2688E4,2.135E3,7.398E3,1.2917E4,1.225E3,2.83E2,6.58E2,1.2E2,8.66E2,5.5E2,2.39E2,1.04E2,5.45E3,1.6E2,7.19E2,5.74E2,1.0536E4,2.133E3,9.27E2,1.388E3],"tree_param":{"num_deleted":"0","num_feature":"18","num_nodes":"63","size_leaf_vector":"0"}},{"base_weights":[1.2219126E5,6.605033E4,3.121504E5,4.9358348E4,2.1455686E5,6.536414E5,1.7635158E5,1.1667387E5,2.4990852E4,1.806518E5,4.3613747E5,5.36393E5,1.3207886E6,1.2277183E5,3.7953862E5,2.2110498E5,7.775102E4,2.4073352E4,1.5043461E6,2.4708894E5,1.3832652E5,7.019282E5,3.522809E5,4.7052444E5,1.3672442E6,1.14431E6,2.810056E6,5.1065195E3,1.6947142E5,2.3136769E5,4.970012E5,2.1457223E5,9.2669825E5,1.1662466E4,1.1708987E5,4.577614E5,2.1846809E4,4.0737935E6,5.5158475E5,2.0990789E5,3.925678E5,2.1255903E5,1.0168952E5,6.842653E5,6.7890725E6,3.2484338E5,8.65893E5,1.8473964E5,5.804671E5,3.851424E6,1.204399E6,1.3749679E6,6.2789256E5,1.8870392E6,3.8506138E6,-1.2946724E4,2.6196392E5,1.4468077E5,4.018535E5,7.198822E4,2.7211672E5,3.9254012E5,6.723998E5],"categories":[],"categories_nodes":[],"categories_segments":[],"categories_sizes":[],"default_left":[true,true,true,true,true,true,true,true,true,true,true,true,true,true,true,true,true,true,true,true,true,true,true,true,true,true,true,true,true,true,true,false,false,false,false,false,false,false,false,false,false,false,false,false,false,false,false,false,false,false,false,false,false,false,false,false,false,false,false,false,false,false,false],"id":5,"left_children":[1,3,5,7,9,11,13,15,17,19,21,23,25,27,29,31,33,35,37,39,41,43,45,47,49,51,53,55,57,59,61,-1,-1,-1,-1,-1,-1,-1,-1,-1,-1,-1,-1,-1,-1,-1,-1,-1,-1,-1,-1,-1,-1,-1,-1,-1,-1,-1,-1,-1,-1,-1,-1],"loss_changes":[3.141289E15,5.635947E14,3.1159913E15,3.352634E14,1.7251058E14,1.4947383E15,5.233647E14,2.207926E14,2.036554E14,5.599718E13,6.7687477E13,8.893261E14,7.476722E14,2.0906445E14,1.7448734E14,6.7786194E13,1.028876E14,1.4481252E14,2.2542349E14,4.1853987E13,3.3087472E13,7.384136E13,3.239865E13,4.7336016E14,4.7837842E14,3.0359674E14,2.827903E14,5.0135183E13,1.568516E14,2.8803259E13,1.0224948E14,0E0,0E0,0E0,0E0,0E0,0E0,0E0,0E0,0E0,0E0,0E0,0E0,0E0,0E0,0E0,0E0,0E0,0E0,0E0,0E0,0E0,0E0,0E0,0E0,0E0,0E0,0E0,0E0,0E0,0E0,0E0,0E0],"parents":[2147483647,0,0,1,1,2,2,3,3,4,4,5,5,6,6,7,7,8,8,9,9,10,10,11,11,12,12,13,13,14,14,15,15,16,16,17,17,18,18,19,19,20,20,21,21,22,22,23,23,24,24,25,25,26,26,27,27,28,28,29,29,30,30],"right_children":[2,4,6,8,10,12,14,16,18,20,22,24,26,28,30,32,34,36,38,40,42,44,46,48,50,52,54,56,58,60,62,-1,-1,-1,-1,-1,-1,-1,-1,-1,-1,-1,-1,-1,-1,-1,-1,-1,-1,-1,-1,-1,-1,-1,-1,-1,-1,-1,-1,-1,-1,-1,-1],"split_conditions":[1.625E2,1.5E0,9.2181E4,5E-1,1.8255E3,1.8025E3,5E-1,9.4077E4,1.95E1,9.6926E4,3.62255E4,4.165E2,2.0195E3,2.0045E3,2.95E0,1.924E3,2.0035E3,1.048E3,1.9595E3,2.692E3,5.5E0,4.9925E3,1.9475E3,7.5E0,1.3085E3,5.0765E3,1.85E1,8.5E0,1.841E3,2.743E3,1.8345E3,6.437167E4,2.780095E5,3.49874E3,3.512696E4,1.3732842E5,6.554043E3,1.2221381E6,1.6547544E5,6.297237E4,1.1777035E5,6.376771E4,3.0506857E4,2.0527961E5,2.0367219E6,9.7453016E4,2.597679E5,5.5421895E4,1.7414014E5,1.1554272E6,3.6131972E5,4.1249038E5,1.8836778E5,5.661118E5,1.1551841E6,-3.8840173E3,7.858918E4,4.340423E4,1.20556055E5,2.1596467E4,8.1635016E4,1.1776204E5,2.0171995E5],"split_indices":[2,8,11,8,15,12,3,11,5,11,11,2,1,1,9,15,1,11,1,16,0,13,12,0,12,13,0,5,12,16,12,0,0,0,0,0,0,0,0,0,0,0,0,0,0,0,0,0,0,0,0,0,0,0,0,0,0,0,0,0,0,0,0],"split_type":[0,0,0,0,0,0,0,0,0,0,0,0,0,0,0,0,0,0,0,0,0,0,0,0,0,0,0,0,0,0,0,0,0,0,0,0,0,0,0,0,0,0,0,0,0,0,0,0,0,0,0,0,0,0,0,0,0,0,0,0,0,0,0],"sum_hessian":[2.94557E5,2.27363E5,6.7194E4,2.04391E5,2.2972E4,1.9117E4,4.8077E4,5.4322E4,1.50069E5,1.9925E4,3.047E3,1.6261E4,2.856E3,3.8046E4,1.0031E4,1.4748E4,3.9574E4,1.49977E5,9.2E1,7.752E3,1.2173E4,7.29E2,2.318E3,1.5068E4,1.193E3,2.555E3,3.01E2,1.081E4,2.7236E4,4.437E3,5.594E3,1.4614E4,1.34E2,1.4767E4,2.4807E4,7.65E2,1.49212E5,2.4E1,6.8E1,6.176E3,1.576E3,4.021E3,8.152E3,7.28E2,1E0,2.202E3,1.16E2,4.187E3,1.0881E4,7.2E1,1.121E3,1.765E3,7.9E2,1.61E2,1.4E2,1.0101E4,7.09E2,2.4612E4,2.624E3,9.04E2,3.533E3,3.508E3,2.086E3],"tree_param":{"num_deleted":"0","num_feature":"18","num_nodes":"63","size_leaf_vector":"0"}},{"base_weights":[8.556619E4,5.494847E4,2.8769956E5,3.421797E4,1.588462E5,2.0306458E5,8.366103E5,3.375596E4,3.0184382E6,2.0323916E6,1.5513666E5,1.9102134E5,1.05272E6,6.0427575E5,1.6999542E6,2.9608597E5,2.9661287E4,6.153267E6,1.17133E6,1.4160211E6,3.2145602E6,3.617282E5,1.3975048E5,1.1802898E5,3.2697866E5,3.5661508E6,7.1707806E5,2.740625E5,9.1794206E5,1.6048154E6,7.64967E6,2.440006E5,1.1804829E6,-4.660372E3,6.316407E4,2.3288962E6,8.552261E6,4.7509362E5,3.4435148E6,8.842303E5,2.9862195E6,1.8985899E6,4.2284955E6,3.0786853E5,5.6303156E5,5.3440863E4,1.6821462E5,1.9843702E6,1.1298519E5,5.0090125E5,2.2234383E5,2.2102875E6,6.018824E6,5.801791E5,2.9232155E6,3.6118606E5,-3.840929E5,5.9691394E5,1.2534638E6,1.4627414E6,3.998063E6,8.832099E6,1.5987518E6],"categories":[],"categories_nodes":[],"categories_segments":[],"categories_sizes":[],"default_left":[true,true,true,true,true,true,true,true,true,true,true,true,true,true,true,true,true,true,true,true,true,true,true,true,true,true,true,true,true,true,true,false,false,false,false,false,false,false,false,false,false,false,false,false,false,false,false,false,false,false,false,false,false,false,false,false,false,false,false,false,false,false,false],"id":6,"left_children":[1,3,5,7,9,11,13,15,17,19,21,23,25,27,29,31,33,35,37,39,41,43,45,47,49,51,53,55,57,59,61,-1,-1,-1,-1,-1,-1,-1,-1,-1,-1,-1,-1,-1,-1,-1,-1,-1,-1,-1,-1,-1,-1,-1,-1,-1,-1,-1,-1,-1,-1,-1,-1],"loss_changes":[1.822963E15,5.509735E14,1.7999475E15,2.9392817E14,2.954137E14,3.4333808E14,1.0371989E15,2.2903245E14,1.8387463E14,5.6655014E13,1.3494049E14,3.2849024E14,3.930972E14,4.2234158E14,6.0867954E14,1.5066416E14,2.4141917E14,9.0178375E13,3.3167516E13,4.495548E13,2.9332446E13,3.1735044E13,9.709572E13,2.0255999E14,2.1033461E14,1.6959866E14,1.2364142E14,1.1418971E14,2.2458518E14,3.6171195E14,1.0751088E14,0E0,0E0,0E0,0E0,0E0,0E0,0E0,0E0,0E0,0E0,0E0,0E0,0E0,0E0,0E0,0E0,0E0,0E0,0E0,0E0,0E0,0E0,0E0,0E0,0E0,0E0,0E0,0E0,0E0,0E0,0E0,0E0],"parents":[2147483647,0,0,1,1,2,2,3,3,4,4,5,5,6,6,7,7,8,8,9,9,10,10,11,11,12,12,13,13,14,14,15,15,16,16,17,17,18,18,19,19,20,20,21,21,22,22,23,23,24,24,25,25,26,26,27,27,28,28,29,29,30,30],"right_children":[2,4,6,8,10,12,14,16,18,20,22,24,26,28,30,32,34,36,38,40,42,44,46,48,50,52,54,56,58,60,62,-1,-1,-1,-1,-1,-1,-1,-1,-1,-1,-1,-1,-1,-1,-1,-1,-1,-1,-1,-1,-1,-1,-1,-1,-1,-1,-1,-1,-1,-1,-1,-1],"split_conditions":[2.844E3,2.0155E3,2.0175E3,5.62E2,1.347E3,3.223E3,3.19E2,2.5E0,1E1,4.85E1,5E-1,5E-1,3.07665E4,5E-1,7.5E1,3.89E2,2.0075E3,4.6275E3,2E0,5E-1,3.675E2,1.85E3,2E0,4.12E3,1.391885E5,5.85E0,1.1E1,4.989E3,1.9215E3,1.9685E3,5.16E3,7.320018E4,3.5414488E5,-1.3981117E3,1.8949223E4,6.986689E5,2.5656785E6,1.425281E5,1.03305444E6,2.652691E5,8.958659E5,5.69577E5,1.2685488E6,9.236056E4,1.6890947E5,1.603226E4,5.046439E4,5.953111E5,3.389556E4,1.5027038E5,6.670315E4,6.6308625E5,1.8056472E6,1.7405375E5,8.769647E5,1.0835582E5,-1.15227875E5,1.7907419E5,3.7603912E5,4.3882244E5,1.199419E6,2.6496298E6,4.7962553E5],"split_indices":[16,1,1,2,12,16,2,14,17,0,0,3,11,3,0,2,1,13,8,3,2,15,0,11,11,9,17,13,15,12,13,0,0,0,0,0,0,0,0,0,0,0,0,0,0,0,0,0,0,0,0,0,0,0,0,0,0,0,0,0,0,0,0],"split_type":[0,0,0,0,0,0,0,0,0,0,0,0,0,0,0,0,0,0,0,0,0,0,0,0,0,0,0,0,0,0,0,0,0,0,0,0,0,0,0,0,0,0,0,0,0,0,0,0,0,0,0,0,0,0,0,0,0,0,0,0,0,0,0],"sum_hessian":[2.94557E5,2.5581E5,3.8747E4,2.1326E5,4.255E4,3.3572E4,5.175E3,2.13228E5,3.2E1,8.3E1,4.2467E4,3.3104E4,4.68E2,4.079E3,1.096E3,3.276E3,2.09952E5,1.1E1,2.1E1,5.6E1,2.7E1,2.942E3,3.9525E4,2.1541E4,1.1563E4,5.4E1,4.14E2,1.988E3,2.091E3,1.08E3,1.6E1,3.095E3,1.81E2,1.03709E5,1.06243E5,5E0,6E0,1.7E1,4E0,4.3E1,1.3E1,1.3E1,1.4E1,2.323E3,6.19E2,9.803E3,2.9722E4,5.7E1,2.1484E4,4.342E3,7.221E3,3.6E1,1.8E1,3.91E2,2.3E1,1.756E3,2.32E2,1.07E3,1.021E3,1.021E3,5.9E1,1.3E1,3E0],"tree_param":{"num_deleted":"0","num_feature":"18","num_nodes":"63","size_leaf_vector":"0"}},{"base_weights":[5.995708E4,4.213539E4,2.4798922E5,2.6786494E4,1.6072034E5,1.8209922E5,9.664498E5,1.3139295E5,1.9462857E4,2.8187756E5,7.343951E4,1.292408E5,3.3853788E5,9.2943325E5,5.5388425E6,7.958993E2,1.9925698E5,-2.2437406E4,3.504682E4,1.5132461E5,4.5693072E5,3.1229232E4,2.1235105E5,5.173097E5,1.1680284E5,2.9488275E5,9.1921944E5,2.3111095E6,8.180903E5,6.371728E6,1.2390324E6,-3.0615982E4,4.4088457E4,1.7487305E5,3.0859762E5,3.5328525E5,-2.6184012E4,-1.2187342E4,5.4660133E4,6.39157E4,3.5952603E5,3.9694616E5,1.6677844E6,-2.4056314E4,9.331394E4,3.67938E5,1.619004E5,1.9037397E5,6.351197E5,9.6224445E4,2.1331523E5,3.169467E5,-5.502234E5,1.4971832E6,-1.9388035E4,7.226098E6,2.0008026E6,1.529839E5,9.838478E5,4.889076E6,8.85609E6],"categories":[],"categories_nodes":[],"categories_segments":[],"categories_sizes":[],"default_left":[true,true,true,true,true,true,true,true,true,true,true,true,true,true,true,true,true,true,true,true,true,true,true,true,true,true,true,true,true,true,false,false,false,false,false,false,false,false,false,false,false,false,false,false,false,false,false,false,false,false,false,false,false,false,false,false,false,false,false,false,false],"id":7,"left_children":[1,3,5,7,9,11,13,15,17,19,21,23,25,27,29,31,33,35,37,39,41,43,45,47,49,51,53,55,57,59,-1,-1,-1,-1,-1,-1,-1,-1,-1,-1,-1,-1,-1,-1,-1,-1,-1,-1,-1,-1,-1,-1,-1,-1,-1,-1,-1,-1,-1,-1,-1],"loss_changes":[9.8706824E14,4.8972103E14,1.2070254E15,1.8250157E14,3.2603962E14,1.931224E14,3.5739416E14,1.3814499E14,1.4537783E14,2.9499506E14,1.0509066E14,8.4224846E13,1.4926696E14,3.251729E14,5.2986475E13,7.2509806E12,2.7292806E13,8.4974225E13,1.5034174E14,1.34592514E14,3.999063E14,4.71907E13,3.2727634E13,2.0754926E13,3.3585772E13,1.0250567E14,2.2353127E14,2.265163E14,2.1692457E14,8.270094E12,0E0,0E0,0E0,0E0,0E0,0E0,0E0,0E0,0E0,0E0,0E0,0E0,0E0,0E0,0E0,0E0,0E0,0E0,0E0,0E0,0E0,0E0,0E0,0E0,0E0,0E0,0E0,0E0,0E0,0E0,0E0],"parents":[2147483647,0,0,1,1,2,2,3,3,4,4,5,5,6,6,7,7,8,8,9,9,10,10,11,11,12,12,13,13,14,14,15,15,16,16,17,17,18,18,19,19,20,20,21,21,22,22,23,23,24,24,25,25,26,26,27,27,28,28,29,29],"right_children":[2,4,6,8,10,12,14,16,18,20,22,24,26,28,30,32,34,36,38,40,42,44,46,48,50,52,54,56,58,60,-1,-1,-1,-1,-1,-1,-1,-1,-1,-1,-1,-1,-1,-1,-1,-1,-1,-1,-1,-1,-1,-1,-1,-1,-1,-1,-1,-1,-1,-1,-1],"split_conditions":[2.0175E3,2.95E0,1.9275E3,5E-1,1.49007E5,1.505E2,7.5E1,2.0005E3,2.0045E3,1.85E1,5E-1,1.4435E3,5.0245E3,5.35E1,5.16E3,1.9965E3,1.6825E3,5.6265E3,3.5E0,5E-1,1.9305E3,2.0065E3,1.5E0,2.66E3,1.5E0,5.25E1,1.5025E3,1.929E3,7.5E0,2.9975E3,3.7170972E5,-9.184795E3,1.3226538E4,5.2461918E4,9.257929E4,1.0598558E5,-7.8552036E3,-3.6562026E3,1.6398041E4,1.917471E4,1.0785781E5,1.1908385E5,5.0033534E5,-7.2168945E3,2.7994182E4,1.1038141E5,4.8570125E4,5.711219E4,1.905359E5,2.8867334E4,6.3994574E4,9.508401E4,-1.6506702E5,4.49155E5,-5.8164106E3,2.1678295E6,6.002408E5,4.589517E4,2.9515434E5,1.4667229E6,2.656827E6],"split_indices":[1,9,15,0,11,2,0,1,1,0,3,12,13,11,13,1,12,11,0,3,12,1,0,16,8,0,12,15,0,16,0,0,0,0,0,0,0,0,0,0,0,0,0,0,0,0,0,0,0,0,0,0,0,0,0,0,0,0,0,0,0],"split_type":[0,0,0,0,0,0,0,0,0,0,0,0,0,0,0,0,0,0,0,0,0,0,0,0,0,0,0,0,0,0,0,0,0,0,0,0,0,0,0,0,0,0,0,0,0,0,0,0,0,0,0,0,0,0,0,0,0,0,0,0,0],"sum_hessian":[2.94557E5,2.69057E5,2.55E4,2.38224E5,3.0833E4,2.3359E4,2.141E3,1.5586E4,2.22638E5,1.291E4,1.7923E4,1.7461E4,5.898E3,2.125E3,1.6E1,5.33E3,1.0256E4,6.0357E4,1.62281E5,7.396E3,5.514E3,1.3747E4,4.176E3,5.41E2,1.692E4,5.487E3,4.11E2,1.57E2,1.968E3,1.3E1,3E0,3.089E3,2.241E3,8.388E3,1.868E3,5.95E2,5.9762E4,4.7614E4,1.14667E5,5.21E3,2.186E3,5.255E3,2.59E2,7.272E3,6.475E3,1.021E3,3.155E3,1.44E2,3.97E2,1.3948E4,2.972E3,5.348E3,1.39E2,2.54E2,1.57E2,8E0,1.49E2,3.93E2,1.575E3,1E1,3E0],"tree_param":{"num_deleted":"0","num_feature":"18","num_nodes":"61","size_leaf_vector":"0"}},{"base_weights":[4.200222E4,2.707247E4,1.7586794E5,2.4258975E4,8.0823706E5,1.3099137E5,5.265166E5,1.2841405E5,1.5239369E4,1.9921492E6,4.9229206E5,1.2991565E5,4.80613E6,4.348577E5,1.7352705E6,1.2492728E5,4.433784E6,1.0656787E4,1.3733261E5,1.3013238E6,3.933319E6,3.8511922E6,4.1403988E5,2.2054856E5,9.164716E4,1.302825E6,5.246226E6,3.4795916E5,9.286495E5,1.1333321E6,2.3915835E6,9.3969806E5,1.1776869E5,6.814602E6,9.035379E5,2.0729492E4,-4.6251164E4,1.426101E6,1.2727145E5,8.2600525E5,2.3476675E6,3.1372525E6,6.615272E6,-1.6040181E6,4.685488E6,7.959742E5,5.6080207E4,1.621874E5,3.5834503E5,5.8586785E4,1.685506E5,2.8582444E5,7.003271E5,2.1566675E6,3.9466425E5,-1.3513116E5,1.3207682E6,2.2644328E6,4.659721E6],"categories":[],"categories_nodes":[],"categories_segments":[],"categories_sizes":[],"default_left":[true,true,true,true,true,true,true,true,true,true,true,true,true,true,true,true,true,true,true,true,true,true,true,true,true,false,false,true,true,true,true,false,false,false,false,false,false,false,false,false,false,false,false,false,false,false,false,false,false,false,false,false,false,false,false,false,false,false,false],"id":8,"left_children":[1,3,5,7,9,11,13,15,17,19,21,23,25,27,29,31,33,35,37,39,41,43,45,47,49,-1,-1,51,53,55,57,-1,-1,-1,-1,-1,-1,-1,-1,-1,-1,-1,-1,-1,-1,-1,-1,-1,-1,-1,-1,-1,-1,-1,-1,-1,-1,-1,-1],"loss_changes":[5.886936E14,5.8240696E14,4.6500584E14,2.4806032E14,3.547419E14,1.3115471E14,3.7073446E14,3.153547E14,1.3596377E14,2.6308332E14,1.9606205E14,9.0844565E13,2.4158352E12,1.3346953E14,9.052368E13,1.2253743E14,1.3672559E14,1.3426041E14,1.1380707E14,7.216547E13,9.0266925E13,8.4887025E13,1.0057913E14,6.248419E13,4.6827257E13,0E0,0E0,5.788539E13,3.0472528E14,2.9897955E13,2.174864E13,0E0,0E0,0E0,0E0,0E0,0E0,0E0,0E0,0E0,0E0,0E0,0E0,0E0,0E0,0E0,0E0,0E0,0E0,0E0,0E0,0E0,0E0,0E0,0E0,0E0,0E0,0E0,0E0],"parents":[2147483647,0,0,1,1,2,2,3,3,4,4,5,5,6,6,7,7,8,8,9,9,10,10,11,11,12,12,13,13,14,14,15,15,16,16,17,17,18,18,19,19,20,20,21,21,22,22,23,23,24,24,27,27,28,28,29,29,30,30],"right_children":[2,4,6,8,10,12,14,16,18,20,22,24,26,28,30,32,34,36,38,40,42,44,46,48,50,-1,-1,52,54,56,58,-1,-1,-1,-1,-1,-1,-1,-1,-1,-1,-1,-1,-1,-1,-1,-1,-1,-1,-1,-1,-1,-1,-1,-1,-1,-1,-1,-1],"split_conditions":[5E-1,5.265E2,2.0175E3,3.32185E4,4.2E0,2.19E3,3.165E2,6.7E0,2.955E2,1.9835E3,1.291E3,1.254145E5,1.9975E3,1.857E3,1.9965E3,1.321E3,2.25E4,2.15E1,2.52E3,3.45E1,2.9975E3,1.872E3,1.961E3,1.927E3,1.8345E3,3.908475E5,1.5738679E6,2.0195E3,1.895E3,1.901E3,6.6E1,2.8190944E5,3.533061E4,2.0443806E6,2.7106138E5,6.218848E3,-1.387535E4,4.278303E5,3.8181438E4,2.4780158E5,7.0430025E5,9.411758E5,1.9845816E6,-4.8120547E5,1.4056465E6,2.3879227E5,1.6824062E4,4.8656223E4,1.07503516E5,1.7576037E4,5.056518E4,8.5747336E4,2.1009814E5,6.4700025E5,1.1839928E5,-4.0539348E4,3.962305E5,6.793299E5,1.3979164E6],"split_indices":[3,2,1,11,9,15,2,9,2,15,12,11,1,12,15,12,11,0,16,0,16,15,15,15,12,0,0,1,12,15,0,0,0,0,0,0,0,0,0,0,0,0,0,0,0,0,0,0,0,0,0,0,0,0,0,0,0,0,0],"split_type":[0,0,0,0,0,0,0,0,0,0,0,0,0,0,0,0,0,0,0,0,0,0,0,0,0,0,0,0,0,0,0,0,0,0,0,0,0,0,0,0,0,0,0,0,0,0,0,0,0,0,0,0,0,0,0,0,0,0,0],"sum_hessian":[2.94557E5,2.65003E5,2.9554E4,2.64053E5,9.5E2,2.6202E4,3.352E3,2.1043E4,2.4301E5,1.99E2,7.51E2,2.6197E4,5E0,3.117E3,2.35E2,2.1027E4,1.6E1,2.3422E5,8.79E3,1.48E2,5.1E1,1.6E1,7.35E2,7.776E3,1.8421E4,1E0,4E0,2.652E3,4.65E2,1.24E2,1.11E2,1.82E2,2.0845E4,9E0,7E0,1.98998E5,3.5222E4,6.7E1,8.723E3,1.03E2,4.5E1,4.1E1,1E1,2E0,1.4E1,3.55E2,3.8E2,5.464E3,2.312E3,1.2884E4,5.537E3,2.256E3,3.96E2,1.4E2,3.25E2,1.6E1,1.08E2,1.07E2,4E0],"tree_param":{"num_deleted":"0","num_feature":"18","num_nodes":"59","size_leaf_vector":"0"}},{"base_weights":[2.9448508E4,7.933052E3,8.76947E4,6.8174287E3,6.174204E5,5.4789547E4,2.4137658E5,1.3585622E5,3.3421045E3,5.143684E6,5.458353E5,-1.300606E4,8.061911E4,1.885903E5,6.616886E5,7.186002E5,9.390474E4,-3.0684934E4,1.2746367E4,1.8812981E6,6.3045525E6,4.462825E5,3.6279668E6,8.404187E3,-2.2761034E5,6.799635E4,3.0705484E5,1.7639048E5,1.2757476E6,-7.2423756E5,7.826657E5,4.1467484E5,2.4959315E6,1.716447E6,8.2694664E4,8.363042E4,-3.7467496E4,1.1462045E5,7.416524E3,-5.0065125E5,3.3225985E6,7.459609E6,1.4196918E6,4.0515866E5,2.562091E6,-9.6776825E5,4.6438905E6,4.5107625E6,7.855208E3,1.4687295E5,-2.3683594E5,2.2791545E4,9.7087664E4,1.5753439E5,6.3572194E5,1.6229738E5,7.2335325E5,1.9231832E6,-3.0289744E5,6.0281895E4,-8.55549E5,7.361291E5,3.3834672E6],"categories":[],"categories_nodes":[],"categories_segments":[],"categories_sizes":[],"default_left":[true,true,true,true,true,true,true,true,true,true,true,true,true,true,true,true,true,true,true,true,true,true,true,true,true,true,true,true,true,true,true,false,false,false,false,false,false,false,false,false,false,false,false,false,false,false,false,false,false,false,false,false,false,false,false,false,false,false,false,false,false,false,false],"id":9,"left_children":[1,3,5,7,9,11,13,15,17,19,21,23,25,27,29,31,33,35,37,39,41,43,45,47,49,51,53,55,57,59,61,-1,-1,-1,-1,-1,-1,-1,-1,-1,-1,-1,-1,-1,-1,-1,-1,-1,-1,-1,-1,-1,-1,-1,-1,-1,-1,-1,-1,-1,-1,-1,-1],"loss_changes":[3.6913747E14,1.4625674E14,4.017899E14,9.628705E13,1.2452946E14,1.1460382E14,3.1075525E14,1.3759343E14,6.6906145E13,1.0862459E13,1.1743284E14,8.296437E13,1.3543126E14,1.6490077E14,2.6262772E14,2.0315155E14,9.542221E13,3.510559E13,8.894299E13,1.1962777E13,1.1978798E13,3.1764781E13,6.0521206E13,4.054734E13,5.693801E12,5.9029846E13,1.22854285E14,9.479624E13,1.4162834E14,1.3031635E13,1.7155388E14,0E0,0E0,0E0,0E0,0E0,0E0,0E0,0E0,0E0,0E0,0E0,0E0,0E0,0E0,0E0,0E0,0E0,0E0,0E0,0E0,0E0,0E0,0E0,0E0,0E0,0E0,0E0,0E0,0E0,0E0,0E0,0E0],"parents":[2147483647,0,0,1,1,2,2,3,3,4,4,5,5,6,6,7,7,8,8,9,9,10,10,11,11,12,12,13,13,14,14,15,15,16,16,17,17,18,18,19,19,20,20,21,21,22,22,23,23,24,24,25,25,26,26,27,27,28,28,29,29,30,30],"right_children":[2,4,6,8,10,12,14,16,18,20,22,24,26,28,30,32,34,36,38,40,42,44,46,48,50,52,54,56,58,60,62,-1,-1,-1,-1,-1,-1,-1,-1,-1,-1,-1,-1,-1,-1,-1,-1,-1,-1,-1,-1,-1,-1,-1,-1,-1,-1,-1,-1,-1,-1,-1,-1],"split_conditions":[1.5E0,1.95E1,2.0165E3,1.39625E4,1.9355E3,1.285E2,3.19E2,1.9775E3,2.0025E3,3E3,6.7E0,1.8975E3,1.9185E3,3.1625E3,7.5E0,7.55E1,1.2775E3,1.9815E3,5E-1,2.1E1,5.6E1,5.87E3,5.85E1,2.75E1,2.05E1,2.0085E3,1E1,1.9465E3,1.885E3,1.5E0,7.5E1,1.2440246E5,7.487795E5,5.1493412E5,2.48084E4,2.5089127E4,-1.1240249E4,3.4386137E4,2.2249573E3,-1.5019538E5,9.9677956E5,2.2378828E6,4.2590753E5,1.215476E5,7.686273E5,-2.903305E5,1.3931672E6,1.3532288E6,2.3565625E3,4.4061887E4,-7.105078E4,6.837464E3,2.91263E4,4.726032E4,1.907166E5,4.8689215E4,2.1700598E5,5.76955E5,-9.0869234E4,1.8084568E4,-2.566647E5,2.2083875E5,1.0150402E6],"split_indices":[7,5,1,11,1,2,2,1,1,11,9,15,12,16,0,2,12,1,0,0,0,13,0,2,0,1,0,12,12,0,0,0,0,0,0,0,0,0,0,0,0,0,0,0,0,0,0,0,0,0,0,0,0,0,0,0,0,0,0,0,0,0,0],"split_type":[0,0,0,0,0,0,0,0,0,0,0,0,0,0,0,0,0,0,0,0,0,0,0,0,0,0,0,0,0,0,0,0,0,0,0,0,0,0,0,0,0,0,0,0,0,0,0,0,0,0,0,0,0,0,0,0,0,0,0,0,0,0,0],"sum_hessian":[2.94557E5,2.15102E5,7.9455E4,2.1471E5,3.92E2,6.5444E4,1.4011E4,5.63E3,2.0908E5,5E0,3.87E2,1.8055E4,4.7389E4,1.2449E4,1.562E3,3.77E2,5.253E3,4.5272E4,1.63808E5,2E0,3E0,3.76E2,1.1E1,1.6418E4,1.637E3,4.4888E4,2.501E3,1.2312E4,1.37E2,1.25E2,1.437E3,3.23E2,5.4E1,3.5E1,5.218E3,2.535E3,4.2737E4,8.143E3,1.55665E5,1E0,1E0,2E0,1E0,3.7E2,6E0,2E0,9E0,1E0,1.6417E4,3.9E1,1.598E3,1.7577E4,2.7311E4,1.72E3,7.81E2,1.2004E4,3.08E2,9.7E1,4E1,1.8E1,1.07E2,1.413E3,2.4E1],"tree_param":{"num_deleted":"0","num_feature":"18","num_nodes":"63","size_leaf_vector":"0"}},{"base_weights":[2.0648988E4,1.7346629E4,2.9329525E5,9.347067E3,8.963866E4,1.8886522E5,6.3322156E5,7.9952246E3,4.2181244E5,8.1776695E4,5.859441E5,1.7352125E5,2.0473606E6,7.166925E5,-1.3371499E6,7.325085E3,7.458163E5,8.443914E5,7.459953E4,8.104832E4,3.532813E6,3.881268E5,1.4738012E6,5.919031E5,1.5176166E5,4.137443E6,2.8211572E5,6.4009544E5,1.7988379E6,-6.4848E4,-1.5046286E6,9.455406E3,-1.8915566E5,2.6765142E6,5.258043E5,4.9792253E5,1.5900459E6,3.313242E6,3.9764816E4,1.721995E5,5.502493E4,1.012043E6,3.8345585E6,2.9829756E5,1.3637284E6,8.211847E5,1.6710778E6,7.5418025E5,3.5820244E5,1.4733844E5,1.9997015E6,-5.8487425E5,5.3911315E6,4.1393547E5,-1.17962625E5,5.71089E5,1.9071329E6,4.839238E6,7.6573694E5,5.84764E5,-3.73442E5,-6.7183475E5,-1.7769248E6],"categories":[],"categories_nodes":[],"categories_segments":[],"categories_sizes":[],"default_left":[true,true,true,true,true,true,true,true,true,true,true,true,true,true,true,true,true,true,true,true,true,true,true,true,true,true,true,true,true,true,true,false,false,false,false,false,false,false,false,false,false,false,false,false,false,false,false,false,false,false,false,false,false,false,false,false,false,false,false,false,false,false,false],"id":10,"left_children":[1,3,5,7,9,11,13,15,17,19,21,23,25,27,29,31,33,35,37,39,41,43,45,47,49,51,53,55,57,59,61,-1,-1,-1,-1,-1,-1,-1,-1,-1,-1,-1,-1,-1,-1,-1,-1,-1,-1,-1,-1,-1,-1,-1,-1,-1,-1,-1,-1,-1,-1,-1,-1],"loss_changes":[2.6520786E14,1.6830544E14,1.2501267E14,1.4610653E14,1.1309261E14,7.6582715E13,1.3713847E14,1.2913517E14,1.2553349E14,7.146638E13,7.881431E13,2.4281094E13,8.000193E13,6.474549E13,7.147266E12,1.0922601E14,9.926477E13,9.892987E13,5.3005144E13,6.7689188E13,6.830508E11,3.2106739E13,9.184905E12,4.735856E12,2.0515977E13,6.235628E13,7.34426E11,6.396156E13,1.5962847E14,1.2207072E12,5.6091937E12,0E0,0E0,0E0,0E0,0E0,0E0,0E0,0E0,0E0,0E0,0E0,0E0,0E0,0E0,0E0,0E0,0E0,0E0,0E0,0E0,0E0,0E0,0E0,0E0,0E0,0E0,0E0,0E0,0E0,0E0,0E0,0E0],"parents":[2147483647,0,0,1,1,2,2,3,3,4,4,5,5,6,6,7,7,8,8,9,9,10,10,11,11,12,12,13,13,14,14,15,15,16,16,17,17,18,18,19,19,20,20,21,21,22,22,23,23,24,24,25,25,26,26,27,27,28,28,29,29,30,30],"right_children":[2,4,6,8,10,12,14,16,18,20,22,24,26,28,30,32,34,36,38,40,42,44,46,48,50,52,54,56,58,60,62,-1,-1,-1,-1,-1,-1,-1,-1,-1,-1,-1,-1,-1,-1,-1,-1,-1,-1,-1,-1,-1,-1,-1,-1,-1,-1,-1,-1,-1,-1,-1,-1],"split_conditions":[2.0195E3,5E-1,1.955E2,3.1625E3,3.275E2,1.927E3,5.753E3,5.775E2,1.6605E3,2.19E3,1.9935E3,1.444E3,1.904E3,3.1055E3,1.3E1,1.9845E3,4.782E3,3.218E3,1.969E3,8.895E4,1.9975E3,3.13E3,4.975E3,1.8E0,1.5E0,1.765E2,2.2007E4,1.968E3,5.206E3,1.1E1,3.85E1,2.836622E3,-5.67467E4,8.029543E5,1.577413E5,1.4937677E5,4.7701378E5,9.939726E5,1.1929445E4,5.165985E4,1.650748E4,3.036129E5,1.1503676E6,8.948927E4,4.0911853E5,2.4635542E5,5.0132334E5,2.2625408E5,1.07460734E5,4.420153E4,5.999105E5,-1.7546228E5,1.6173395E6,1.2418065E5,-3.538879E4,1.713267E5,5.721399E5,1.4517715E6,2.297211E5,1.754292E5,-1.120326E5,-2.0155044E5,-5.3307744E5],"split_indices":[1,3,2,16,2,15,13,2,12,15,15,12,11,16,11,15,13,16,1,11,1,16,13,9,3,2,11,12,13,11,0,0,0,0,0,0,0,0,0,0,0,0,0,0,0,0,0,0,0,0,0,0,0,0,0,0,0,0,0,0,0,0,0],"split_type":[0,0,0,0,0,0,0,0,0,0,0,0,0,0,0,0,0,0,0,0,0,0,0,0,0,0,0,0,0,0,0,0,0,0,0,0,0,0,0,0,0,0,0,0,0,0,0,0,0,0,0,0,0,0,0,0,0,0,0,0,0,0,0],"sum_hessian":[2.94557E5,2.91033E5,3.524E3,2.62038E5,2.8995E4,2.697E3,8.27E2,2.61183E5,8.55E2,2.8544E4,4.51E2,2.676E3,2.1E1,7.94E2,3.3E1,2.60947E5,2.36E2,3.85E2,4.7E2,2.8539E4,5E0,3.7E2,8.1E1,1.31E2,2.545E3,9E0,1.2E1,7.43E2,5.1E1,4E0,2.9E1,2.58149E5,2.798E3,2.3E1,2.13E2,2.64E2,1.21E2,4E0,4.66E2,6.337E3,2.2202E4,1E0,4E0,3.4E2,3E1,2E1,6.1E1,7.6E1,5.5E1,2.54E3,5E0,2E0,7E0,9E0,3E0,7.06E2,3.7E1,1.2E1,3.9E1,1E0,3E0,8E0,2.1E1],"tree_param":{"num_deleted":"0","num_feature":"18","num_nodes":"63","size_leaf_vector":"0"}},{"base_weights":[1.4486779E4,3.8076438E4,-8.94892E3,3.34244E4,2.6881647E5,1.1685241E6,-9.355401E3,2.3807604E4,1.069989E5,6.966213E5,1.1852149E5,-4.7229122E5,2.8938638E6,-4.121812E4,-3.8784103E2,3.461927E4,-2.4993008E4,8.992545E4,3.8721312E5,5.7986056E5,2.0135936E6,6.9207894E5,-3.7325496E4,-1.1757735E6,1.6887953E5,4.3314305E6,3.043708E5,-4.1656098E4,2.3334348E6,9.249577E4,-5.494247E3,1.6783512E6,3.3497992E4,4.6845165E6,-2.5604078E4,3.6285128E5,7.386817E4,3.2523006E5,1.4795164E6,2.2889816E5,1.2140764E6,3.674039E6,1.6159761E6,6.100286E5,1.7678749E6,-7.750978E4,1.3100199E6,-6.4254344E5,-1.6907848E6,1.9700489E6,-4.4558356E5,4.7841195E6,-1.229453E6,7.4069506E5,1.0270286E5,-6.883558E5,-4.0436395E4,3.0490785E6,-6.22392E5,6.668999E4,1.5364208E5,-2.8776664E4,3.9829692E3],"categories":[],"categories_nodes":[],"categories_segments":[],"categories_sizes":[],"default_left":[true,true,true,true,true,true,true,true,true,true,true,true,true,true,true,true,true,true,true,true,true,true,true,true,true,true,true,true,true,true,true,false,false,false,false,false,false,false,false,false,false,false,false,false,false,false,false,false,false,false,false,false,false,false,false,false,false,false,false,false,false,false,false],"id":11,"left_children":[1,3,5,7,9,11,13,15,17,19,21,23,25,27,29,31,33,35,37,39,41,43,45,47,49,51,53,55,57,59,61,-1,-1,-1,-1,-1,-1,-1,-1,-1,-1,-1,-1,-1,-1,-1,-1,-1,-1,-1,-1,-1,-1,-1,-1,-1,-1,-1,-1,-1,-1,-1,-1],"loss_changes":[1.6284385E14,1.5756475E14,7.073292E13,1.0181188E14,1.8644279E14,1.4574592E14,4.2205863E13,6.7147384E13,7.9545915E13,1.14775485E14,1.9202955E14,1.2376976E13,9.174584E13,3.3838382E13,5.467371E13,1.9196138E14,6.6546433E13,6.8689957E13,6.4176425E13,1.541967E14,3.4336368E13,3.943721E13,9.16017E13,2.4836508E12,1.7479103E13,4.615949E13,8.038546E11,2.5557878E13,1.4589635E13,9.468369E12,2.410971E13,0E0,0E0,0E0,0E0,0E0,0E0,0E0,0E0,0E0,0E0,0E0,0E0,0E0,0E0,0E0,0E0,0E0,0E0,0E0,0E0,0E0,0E0,0E0,0E0,0E0,0E0,0E0,0E0,0E0,0E0,0E0,0E0],"parents":[2147483647,0,0,1,1,2,2,3,3,4,4,5,5,6,6,7,7,8,8,9,9,10,10,11,11,12,12,13,13,14,14,15,15,16,16,17,17,18,18,19,19,20,20,21,21,22,22,23,23,24,24,25,25,26,26,27,27,28,28,29,29,30,30],"right_children":[2,4,6,8,10,12,14,16,18,20,22,24,26,28,30,32,34,36,38,40,42,44,46,48,50,52,54,56,58,60,62,-1,-1,-1,-1,-1,-1,-1,-1,-1,-1,-1,-1,-1,-1,-1,-1,-1,-1,-1,-1,-1,-1,-1,-1,-1,-1,-1,-1,-1,-1,-1,-1],"split_conditions":[2.5E0,3.615E2,1.9505E3,5E-1,4.1499996E0,2.6E0,2.0005E3,2.15E1,3.95E0,1.942E3,2.8515E3,1.9415E3,9.25E4,2.0345E3,5E-1,1.9705E3,1.9355E3,1.50825E4,2.0535E3,5.0385E3,1.956E3,2E0,6.9E1,4.1E1,1.5E4,5E-1,1.9455E3,5.055E2,7.35E0,1.6745E3,3.5E0,5.035054E5,1.0049398E4,1.405355E6,-7.6812236E3,1.0885539E5,2.2160453E4,9.756902E4,4.4385494E5,6.866945E4,3.6422294E5,1.1022118E6,4.8479284E5,1.830086E5,5.303625E5,-2.3252936E4,3.9300597E5,-1.9276303E5,-5.0723544E5,5.910147E5,-1.3367508E5,1.4352359E6,-3.688359E5,2.2220853E5,3.081086E4,-2.0650675E5,-1.2130919E4,9.1472356E5,-1.8671761E5,2.0006998E4,4.6092625E4,-8.633E3,1.1948909E3],"split_indices":[10,2,1,3,9,9,1,0,9,12,16,1,11,15,0,1,1,11,15,13,12,8,0,2,11,6,1,11,9,12,0,0,0,0,0,0,0,0,0,0,0,0,0,0,0,0,0,0,0,0,0,0,0,0,0,0,0,0,0,0,0,0,0],"split_type":[0,0,0,0,0,0,0,0,0,0,0,0,0,0,0,0,0,0,0,0,0,0,0,0,0,0,0,0,0,0,0,0,0,0,0,0,0,0,0,0,0,0,0,0,0,0,0,0,0,0,0,0,0,0,0,0,0,0,0,0,0,0,0],"sum_hessian":[2.94557E5,1.46796E5,1.47761E5,1.43896E5,2.9E3,5E1,1.47711E5,1.27263E5,1.6633E4,7.53E2,2.147E3,2.6E1,2.4E1,3.2441E4,1.1527E5,1.04182E5,2.3081E4,1.5679E4,9.54E2,6.93E2,6E1,4.58E2,1.689E3,1.2E1,1.4E1,1.5E1,9E0,3.2436E4,5E0,6.006E3,1.09264E5,7E1,1.04112E5,2E0,2.3079E4,8.7E2,1.4809E4,9.04E2,5E1,4.47E2,2.46E2,1E1,5E1,4.27E2,3.1E1,1.641E3,4.8E1,7E0,5E0,3E0,1.1E1,1.4E1,1E0,2E0,7E0,6E1,3.2376E4,4E0,1E0,4.225E3,1.781E3,3.1609E4,7.7655E4],"tree_param":{"num_deleted":"0","num_feature":"18","num_nodes":"63","size_leaf_vector":"0"}},{"base_weights":[1.0165636E4,6.0932905E3,1.02279305E5,1.4714086E5,3.9486006E3,8.2255555E4,4.3735362E5,4.125381E5,8.076766E4,-1.0121054E4,3.0100148E4,3.453258E5,6.7370766E4,6.2667594E5,-4.6048053E5,4.387577E6,3.354138E5,4.0270925E6,7.8408664E4,-6.138114E3,-7.811008E4,2.9550865E4,3.5868935E6,1.835523E5,5.718491E5,6.690888E3,1.16819125E5,5.864674E5,4.3822485E6,6.1686556E5,-9.6802056E5,1.3736012E6,4.977448E6,-5.7621566E4,5.6504444E5,-2.0686307E2,1.7658667E5,-6.205878E3,2.3080878E6,8.3161756E5,-9.50622E4,4.60745E4,-2.0197182E4,6.3338275E5,4.272489E6,2.73218E5,-4.519964E5,4.7272806E5,1.0656814E6,1.5456596E4,-2.3380642E5,1.5641522E5,-9.353051E4,-5.279564E5,6.910874E5,-7.377835E5,6.705177E5,-1.2907426E6,1.3895454E2],"categories":[],"categories_nodes":[],"categories_segments":[],"categories_sizes":[],"default_left":[true,true,true,true,true,true,true,true,true,true,true,true,true,true,true,true,true,false,true,true,true,true,true,true,true,true,true,true,false,true,true,false,false,false,false,false,false,false,false,false,false,false,false,false,false,false,false,false,false,false,false,false,false,false,false,false,false,false,false],"id":12,"left_children":[1,3,5,7,9,11,13,15,17,19,21,23,25,27,29,31,33,-1,35,37,39,41,43,45,47,49,51,53,-1,55,57,-1,-1,-1,-1,-1,-1,-1,-1,-1,-1,-1,-1,-1,-1,-1,-1,-1,-1,-1,-1,-1,-1,-1,-1,-1,-1,-1,-1],"loss_changes":[1.1049358E14,8.533197E13,8.363751E13,7.439117E13,1.0223848E14,4.6061133E13,1.1978453E14,2.5758174E14,3.1159243E13,4.8923184E13,1.8979007E14,2.298169E13,3.3425017E13,8.516445E13,6.7853085E13,2.1608685E13,7.494251E13,0E0,2.6087942E13,2.6778953E13,1.5426637E14,7.98888E13,2.7667592E13,2.1151667E13,1.2320902E13,1.0550585E13,5.113817E13,6.7521265E13,0E0,3.4018888E12,2.6245673E13,0E0,0E0,0E0,0E0,0E0,0E0,0E0,0E0,0E0,0E0,0E0,0E0,0E0,0E0,0E0,0E0,0E0,0E0,0E0,0E0,0E0,0E0,0E0,0E0,0E0,0E0,0E0,0E0],"parents":[2147483647,0,0,1,1,2,2,3,3,4,4,5,5,6,6,7,7,8,8,9,9,10,10,11,11,12,12,13,13,14,14,15,15,16,16,18,18,19,19,20,20,21,21,22,22,23,23,24,24,25,25,26,26,27,27,29,29,30,30],"right_children":[2,4,6,8,10,12,14,16,18,20,22,24,26,28,30,32,34,-1,36,38,40,42,44,46,48,50,52,54,-1,56,58,-1,-1,-1,-1,-1,-1,-1,-1,-1,-1,-1,-1,-1,-1,-1,-1,-1,-1,-1,-1,-1,-1,-1,-1,-1,-1,-1,-1],"split_conditions":[2.0185E3,2.5E0,3.19E2,1.321E3,1.5395E3,1.4425E3,5.25E0,1.9705E3,1.9225E3,1.8545E3,5.965E2,1.85E1,1.7825E3,6.445E2,2.8825E3,3.986E3,5E-1,1.2081278E6,4.6375E3,3.105E3,5E-1,2.15E1,1.62275E4,4.776E3,9E0,1.425E2,1.95E1,1.8695E3,1.3146746E6,7E0,2.0205E3,4.120804E5,1.4932345E6,-1.728647E4,1.6951334E5,-6.205892E1,5.2976004E4,-1.8617634E3,6.924264E5,2.4948528E5,-2.8518662E4,1.3822351E4,-6.059155E3,1.9001483E5,1.2817468E6,8.196541E4,-1.3559892E5,1.4181842E5,3.1970444E5,4.636979E3,-7.014193E4,4.6924566E4,-2.8059154E4,-1.5838692E5,2.0732622E5,-2.2133506E5,2.0115531E5,-3.872228E5,4.1686363E1],"split_indices":[1,14,2,12,12,12,9,1,1,15,2,0,15,2,16,13,7,0,13,16,5,0,11,13,5,2,0,15,0,0,1,0,0,0,0,0,0,0,0,0,0,0,0,0,0,0,0,0,0,0,0,0,0,0,0,0,0,0,0],"split_type":[0,0,0,0,0,0,0,0,0,0,0,0,0,0,0,0,0,0,0,0,0,0,0,0,0,0,0,0,0,0,0,0,0,0,0,0,0,0,0,0,0,0,0,0,0,0,0,0,0,0,0,0,0,0,0,0,0,0,0],"sum_hessian":[2.94557E5,2.82087E5,1.247E4,4.224E3,2.77863E5,1.1768E4,7.02E2,8.44E2,3.38E3,1.80665E5,9.7198E4,6.29E2,1.1139E4,5.8E2,1.22E2,1.5E1,8.29E2,1E0,3.379E3,1.70668E5,9.997E3,9.7184E4,1.4E1,3.68E2,2.61E2,5.002E3,6.137E3,5.75E2,5E0,3.9E1,8.3E1,3E0,1.2E1,3.06E2,5.23E2,1.877E3,1.502E3,1.70664E5,4E0,1.82E2,9.815E3,7.2953E4,2.4231E4,3E0,1.1E1,3.23E2,4.5E1,2.19E2,4.2E1,4.827E3,1.75E2,5.165E3,9.72E2,4.9E1,5.26E2,1E0,3.8E1,6.2E1,2.1E1],"tree_param":{"num_deleted":"0","num_feature":"18","num_nodes":"59","size_leaf_vector":"0"}},{"base_weights":[7.1397954E3,-1.1071105E4,2.291294E4,3.426897E5,-1.2184581E4,4.927313E3,5.487925E4,1.323602E5,1.4974964E6,-4.7088677E3,-5.741919E4,8.919474E3,-1.4149644E5,7.367479E5,5.300151E4,6.583494E5,-8.056757E4,3.976239E5,3.4057058E6,-6.1062686E3,1.7469538E5,-5.8766047E4,1.1837168E6,7.8970454E3,5.726697E5,-1.05152E5,-7.6281606E5,2.7121332E6,5.6818675E5,5.830082E3,7.697936E4,4.0405794E5,6.978193E6,2.2170645E5,-2.771097E5,-3.717676E5,3.8101825E6,7.8569295E6,2.1226145E6,3.4230285E6,-6.165311E3,1.7188145E6,7.263959E4,-2.469931E6,-5.813851E4,2.2876547E5,2.706917E6,1.8218494E4,-4.1598477E4,5.612846E4,7.0322856E5,-1.2934866E5,2.3422336E5,-2.6876016E5,-1.0782215E6,1.8593496E6,6.046376E6,3.9305777E4,9.005241E5,1.4208098E5,-3.3322133E4,2.436212E4,1.1793842E5],"categories":[],"categories_nodes":[],"categories_segments":[],"categories_sizes":[],"default_left":[true,true,true,true,true,true,true,true,true,true,true,true,true,true,true,true,true,true,true,true,true,true,true,true,true,true,true,true,true,true,true,false,false,false,false,false,false,false,false,false,false,false,false,false,false,false,false,false,false,false,false,false,false,false,false,false,false,false,false,false,false,false,false],"id":13,"left_children":[1,3,5,7,9,11,13,15,17,19,21,23,25,27,29,31,33,35,37,39,41,43,45,47,49,51,53,55,57,59,61,-1,-1,-1,-1,-1,-1,-1,-1,-1,-1,-1,-1,-1,-1,-1,-1,-1,-1,-1,-1,-1,-1,-1,-1,-1,-1,-1,-1,-1,-1,-1,-1],"loss_changes":[8.4610025E13,5.385679E13,9.074962E13,1.0400158E14,4.6086677E13,5.904754E13,7.2728225E13,4.0820204E13,1.3716575E14,2.9322646E13,3.2380518E13,5.6673478E13,6.0460825E13,5.0402834E13,6.4106313E13,1.65924E14,1.5507927E13,1.1431702E14,1.2039456E14,2.3518297E13,1.4233314E14,2.9072738E13,2.9926971E13,5.0144762E13,1.1964676E13,2.0838867E13,2.2772747E13,2.2878318E13,2.545081E13,1.0190481E14,8.098129E13,0E0,0E0,0E0,0E0,0E0,0E0,0E0,0E0,0E0,0E0,0E0,0E0,0E0,0E0,0E0,0E0,0E0,0E0,0E0,0E0,0E0,0E0,0E0,0E0,0E0,0E0,0E0,0E0,0E0,0E0,0E0,0E0],"parents":[2147483647,0,0,1,1,2,2,3,3,4,4,5,5,6,6,7,7,8,8,9,9,10,10,11,11,12,12,13,13,14,14,15,15,16,16,17,17,18,18,19,19,20,20,21,21,22,22,23,23,24,24,25,25,26,26,27,27,28,28,29,29,30,30],"right_children":[2,4,6,8,10,12,14,16,18,20,22,24,26,28,30,32,34,36,38,40,42,44,46,48,50,52,54,56,58,60,62,-1,-1,-1,-1,-1,-1,-1,-1,-1,-1,-1,-1,-1,-1,-1,-1,-1,-1,-1,-1,-1,-1,-1,-1,-1,-1,-1,-1,-1,-1,-1,-1],"split_conditions":[2.0085E3,1.55E3,5E-1,2.74E3,1.8385E3,1.895E2,1.3085E3,1.9605E3,9.25E2,3.55E0,2.1435E3,2.6E0,1.914E3,1.8E3,7.5E0,7.25E1,1.6775E3,5.45E0,1.9535E3,1.9245E3,2.51E3,1.9445E3,5E-1,1.95E1,1.875E2,4.936E3,2.0155E3,9.4E1,4.3435E3,5E-1,2.778E3,1.2121738E5,2.093458E6,6.651194E4,-8.313291E4,-1.1153028E5,1.1430548E6,2.357079E6,6.367844E5,1.02690856E6,-1.8495934E3,5.1564438E5,2.1791879E4,-7.409793E5,-1.7441555E4,6.862964E4,8.120751E5,5.4655483E3,-1.2479544E4,1.683854E4,2.1096858E5,-3.8804598E4,7.026701E4,-8.062805E4,-3.2346647E5,5.5780494E5,1.8139129E6,1.1791733E4,2.7015725E5,4.2624297E4,-9.996641E3,7.308636E3,3.5381527E4],"split_indices":[1,11,7,16,15,2,12,1,11,9,15,9,15,11,0,2,15,9,1,1,16,1,3,0,2,13,1,0,13,0,16,0,0,0,0,0,0,0,0,0,0,0,0,0,0,0,0,0,0,0,0,0,0,0,0,0,0,0,0,0,0,0,0],"split_type":[0,0,0,0,0,0,0,0,0,0,0,0,0,0,0,0,0,0,0,0,0,0,0,0,0,0,0,0,0,0,0,0,0,0,0,0,0,0,0,0,0,0,0,0,0,0,0,0,0,0,0,0,0,0,0,0,0,0,0,0,0,0,0],"sum_hessian":[2.94557E5,1.36714E5,1.57843E5,4.28E2,1.36286E5,1.01011E5,5.6832E4,3.63E2,6.5E1,1.16958E5,1.9328E4,9.8331E4,2.68E3,1.55E2,5.6677E4,1.04E2,2.59E2,4.2E1,2.3E1,1.16055E5,9.03E2,1.9308E4,2E1,9.8154E4,1.77E2,2.533E3,1.47E2,1.1E1,1.44E2,1.9101E4,3.7576E4,1.01E2,3E0,1.02E2,1.57E2,3.5E1,7E0,4E0,1.9E1,1E0,1.16054E5,5.5E1,8.48E2,4E0,1.9304E4,1.3E1,7E0,8.1218E4,1.6936E4,3.6E1,1.41E2,2.365E3,1.68E2,5.8E1,8.9E1,1E1,1E0,5.6E1,8.8E1,4.263E3,1.4838E4,1.6448E4,2.1128E4],"tree_param":{"num_deleted":"0","num_feature":"18","num_nodes":"63","size_leaf_vector":"0"}},{"base_weights":[5.0334536E3,3.729434E3,1.4651966E5,5.005137E3,-1.411264E5,3.6323716E5,-1.0530366E5,4.306757E3,2.653564E5,-2.4977738E6,-1.3272053E5,1.6165462E6,2.9349628E5,4.34052E4,-4.872135E5,4.242539E3,3.0918722E6,-9.721877E4,6.698042E5,-3.3351285E6,-1.5232416E6,-1.5406089E5,5.9057706E5,2.7483455E6,5.8334344E5,1.4892366E5,4.8123934E5,-2.0692385E3,8.1378356E5,-4.0545047E5,-8.7428125E5,5.080573E4,6.3908716E2,1.8214861E4,-1.2582871E6,6.447716E5,2.0642966E6,-4.49631E5,-1.6480376E6,-1.5785212E5,2.2208108E6,2.087558E6,1.6743447E5,2.2333648E5,4.0015442E6,-7.48118E3,1.4178889E6,8.6678975E5,9.2960516E4,4.2863188E5,1.9749021E6,3.479064E5,-4.511906E4,1.7828534E6,3.8739938E5,-5.27968E5,-2.1712277E5,-2.1958352E5,-1.1280086E6],"categories":[],"categories_nodes":[],"categories_segments":[],"categories_sizes":[],"default_left":[true,true,true,true,true,true,true,true,true,true,true,true,true,true,true,true,false,true,true,false,true,true,true,true,true,true,true,true,true,true,true,false,false,false,false,false,false,false,false,false,false,false,false,false,false,false,false,false,false,false,false,false,false,false,false,false,false,false,false],"id":14,"left_children":[1,3,5,7,9,11,13,15,17,19,21,23,25,27,29,31,-1,33,35,-1,37,39,41,43,45,47,49,51,53,55,57,-1,-1,-1,-1,-1,-1,-1,-1,-1,-1,-1,-1,-1,-1,-1,-1,-1,-1,-1,-1,-1,-1,-1,-1,-1,-1,-1,-1],"loss_changes":[5.4345635E13,5.393607E13,1.468437E14,5.2604583E13,5.014364E13,1.2591589E14,7.072891E13,5.7199536E13,1.13566586E14,2.264056E12,3.9296975E13,8.726949E13,3.7140713E13,3.1425856E13,1.0690618E13,4.8414255E13,0E0,5.483969E13,1.1445232E13,0E0,6.288415E10,2.2571752E13,4.589133E13,1.130225E14,2.0226477E13,3.109448E13,4.5985854E13,1.2791995E13,1.9969127E13,6.5766645E12,9.719196E12,0E0,0E0,0E0,0E0,0E0,0E0,0E0,0E0,0E0,0E0,0E0,0E0,0E0,0E0,0E0,0E0,0E0,0E0,0E0,0E0,0E0,0E0,0E0,0E0,0E0,0E0,0E0,0E0],"parents":[2147483647,0,0,1,1,2,2,3,3,4,4,5,5,6,6,7,7,8,8,9,9,10,10,11,11,12,12,13,13,14,14,15,15,17,17,18,18,20,20,21,21,22,22,23,23,24,24,25,25,26,26,27,27,28,28,29,29,30,30],"right_children":[2,4,6,8,10,12,14,16,18,20,22,24,26,28,30,32,-1,34,36,-1,38,40,42,44,46,48,50,52,54,56,58,-1,-1,-1,-1,-1,-1,-1,-1,-1,-1,-1,-1,-1,-1,-1,-1,-1,-1,-1,-1,-1,-1,-1,-1,-1,-1,-1,-1],"split_conditions":[3.0985E3,5.1205E3,1.9E3,5.55E0,1.9635E3,6.78E2,2.0145E3,6.445E2,1.8635E3,6.8E3,6.1E1,4.5E0,2.0135E3,2.1165E3,5.2E1,5E-1,9.275617E5,2.0145E3,4.975E2,-1.00053856E6,5.206E3,2.0205E3,5.1455E3,1.765E2,3.74E2,1.9675E3,1E1,1.5E0,7.2E4,3.205E3,3.725E2,1.524172E4,1.9172615E2,5.4644585E3,-3.7748616E5,1.934315E5,6.19289E5,-1.3488931E5,-4.944113E5,-4.735564E4,6.6624325E5,6.2626744E5,5.0230344E4,6.7000945E4,1.2004634E6,-2.2443542E3,4.253667E5,2.6003694E5,2.7888156E4,1.2858957E5,5.924707E5,1.0437193E5,-1.3535718E4,5.3485606E5,1.1621982E5,-1.583904E5,-6.5136832E4,-6.5875055E4,-3.384026E5],"split_indices":[16,13,12,9,1,11,1,2,12,11,0,14,1,15,0,0,0,1,2,0,13,1,13,2,2,1,17,0,11,16,2,0,0,0,0,0,0,0,0,0,0,0,0,0,0,0,0,0,0,0,0,0,0,0,0,0,0,0,0],"split_type":[0,0,0,0,0,0,0,0,0,0,0,0,0,0,0,0,0,0,0,0,0,0,0,0,0,0,0,0,0,0,0,0,0,0,0,0,0,0,0,0,0,0,0,0,0,0,0,0,0,0,0,0,0,0,0,0,0,0,0],"sum_hessian":[2.94557E5,2.91868E5,2.689E3,2.89321E5,2.547E3,1.445E3,1.244E3,2.88548E5,7.73E2,8E0,2.539E3,7.5E1,1.37E3,8.96E2,3.48E2,2.88543E5,5E0,4.08E2,3.65E2,3E0,5E0,2.467E3,7.2E1,3.5E1,4E1,7.75E2,5.95E2,8.47E2,4.9E1,2.89E2,5.9E1,2.0725E4,2.67818E5,3.72E2,3.6E1,3.6E2,5E0,1E0,4E0,2.464E3,3E0,1.5E1,5.7E1,1.2E1,2.3E1,2.4E1,1.6E1,5.5E1,7.2E2,5.76E2,1.9E1,9.2E1,7.55E2,1.4E1,3.5E1,1.74E2,1.15E2,1.7E1,4.2E1],"tree_param":{"num_deleted":"0","num_feature":"18","num_nodes":"59","size_leaf_vector":"0"}},{"base_weights":[3.536527E3,3.0294697E3,3.3346044E5,1.5964116E3,1.21332445E5,6.53849E5,6.963421E4,-1.8821732E4,8.391932E3,1.3626488E5,-3.753701E5,3.617002E5,1.4009399E6,4.29639E4,1.3625528E6,-1.0910111E6,-1.8407592E4,8.669758E5,7.8441665E3,3.4788688E4,2.24822E5,9.3080956E5,-4.3754712E5,5.323965E5,-9.8498306E5,2.1911262E6,4.4180225E5,-1.2399808E6,6.399206E4,3.337499E5,-1.3423775E6,1.5221662E6,-1.8853475E4,3.0181112E6,3.2145112E5,1.9499531E4,-1.3214837E4,2.5999047E4,4.2556162E5,1.8518264E5,6.1214506E5,1.386225E4,1.537487E6,-1.9210286E5,-9.226144E5,6.38087E5,-1.1855675E6,-1.4758374E6,9.7925306E5,1.0428496E6,3.7008285E6,2.9317502E6,-1.1869959E5,-1.7775669E6,1.8638875E5,8.125511E4,-1.3383825E6],"categories":[],"categories_nodes":[],"categories_segments":[],"categories_sizes":[],"default_left":[true,true,true,true,true,true,true,true,true,true,true,true,true,true,false,true,true,true,true,true,true,true,true,true,true,true,true,true,true,false,false,false,false,false,false,false,false,false,false,false,false,false,false,false,false,false,false,false,false,false,false,false,false,false,false,false,false],"id":15,"left_children":[1,3,5,7,9,11,13,15,17,19,21,23,25,27,-1,29,31,33,35,37,39,41,43,45,47,49,51,53,55,-1,-1,-1,-1,-1,-1,-1,-1,-1,-1,-1,-1,-1,-1,-1,-1,-1,-1,-1,-1,-1,-1,-1,-1,-1,-1,-1,-1],"loss_changes":[4.927571E13,4.986125E13,3.816063E13,4.03198E13,2.6158897E13,4.4018675E13,8.5276125E12,3.220061E13,1.0253143E14,3.0707833E13,8.7723575E12,3.4545737E13,4.223211E13,6.688951E12,0E0,1.0475855E13,4.98548E13,1.6214599E14,5.3480954E13,5.4639345E12,2.7906298E13,2.7601433E12,1.1609406E13,2.4724063E13,1.7835833E13,4.9880827E13,3.8029746E13,3.398505E12,5.9673915E12,0E0,0E0,0E0,0E0,0E0,0E0,0E0,0E0,0E0,0E0,0E0,0E0,0E0,0E0,0E0,0E0,0E0,0E0,0E0,0E0,0E0,0E0,0E0,0E0,0E0,0E0,0E0,0E0],"parents":[2147483647,0,0,1,1,2,2,3,3,4,4,5,5,6,6,7,7,8,8,9,9,10,10,11,11,12,12,13,13,15,15,16,16,17,17,18,18,19,19,20,20,21,21,22,22,23,23,24,24,25,25,26,26,27,27,28,28],"right_children":[2,4,6,8,10,12,14,16,18,20,22,24,26,28,-1,30,32,34,36,38,40,42,44,46,48,50,52,54,56,-1,-1,-1,-1,-1,-1,-1,-1,-1,-1,-1,-1,-1,-1,-1,-1,-1,-1,-1,-1,-1,-1,-1,-1,-1,-1,-1,-1],"split_conditions":[1.95E1,2.0195E3,7.45E4,8.95E1,5.25E1,1.416E3,5.75E0,1.9385E3,1.9745E3,7.5E0,1.1E1,5.55E0,2.05E1,1.9635E3,4.0876584E5,1E1,1.9415E3,4.7325E3,1.799945E5,1.9425E3,2.998E3,3.735E2,4.814E3,1.075E2,5.675E2,1.145E2,1.9505E3,1.5E0,5.6425E3,1.0012498E5,-4.0271328E5,4.566499E5,-5.6560425E3,9.0543344E5,9.643534E4,5.8498594E3,-3.9644512E3,7.7997144E3,1.2766849E5,5.5554793E4,1.8364353E5,4.1586753E3,4.6124612E5,-5.763086E4,-2.767843E5,1.9142611E5,-3.5567025E5,-4.4275122E5,2.9377594E5,3.128549E5,1.1102486E6,8.795251E5,-3.560988E4,-5.3327006E5,5.591663E4,2.4376533E4,-4.0151478E5],"split_indices":[5,1,11,2,0,12,9,1,1,0,11,9,5,1,0,0,1,13,11,12,16,2,13,0,2,2,1,10,13,0,0,0,0,0,0,0,0,0,0,0,0,0,0,0,0,0,0,0,0,0,0,0,0,0,0,0,0],"split_type":[0,0,0,0,0,0,0,0,0,0,0,0,0,0,0,0,0,0,0,0,0,0,0,0,0,0,0,0,0,0,0,0,0,0,0,0,0,0,0,0,0,0,0,0,0,0,0,0,0,0,0,0,0,0,0,0,0],"sum_hessian":[2.94557E5,2.94106E5,4.51E2,2.90587E5,3.519E3,2.03E2,2.48E2,7.2562E4,2.18025E5,3.417E3,1.02E2,1.47E2,5.6E1,2.44E2,4E0,2.7E1,7.2535E4,1.38E2,2.17887E5,1.593E3,1.824E3,4E0,9.8E1,1.31E2,1.6E1,3E1,2.6E1,3E0,2.41E2,4E0,2.3E1,2E1,7.2515E4,2.7E1,1.11E2,1.40259E5,7.7628E4,1.559E3,3.4E1,1.656E3,1.68E2,2E0,2E0,6.6E1,3.2E1,1.24E2,7E0,1.3E1,3E0,1.8E1,1.2E1,4E0,2.2E1,2E0,1E0,2.39E2,2E0],"tree_param":{"num_deleted":"0","num_feature":"18","num_nodes":"57","size_leaf_vector":"0"}},{"base_weights":[2.486314E3,-1.161488E4,1.0828323E4,3.6835957E4,-2.3230682E4,4.0806574E4,-4.367999E3,-2.262015E3,6.6913516E4,-1.8970248E4,-3.61315E5,2.4414275E4,3.7607206E5,4.356296E4,-1.32581455E4,-2.792128E3,1.6250555E6,3.9905777E4,1.1457346E5,-2.3375878E6,-1.886369E4,-1.8025997E5,-6.02339E5,3.8538477E4,-1.4068225E5,2.1767039E5,4.7040088E5,5.184425E5,3.7199887E4,7.7454116E3,-3.440098E4,-3.9610367E4,1.4892205E4,5.4318914E4,-1.1945185E5,1.9636372E5,5.945432E4,-1.0609181E6,-3.0837982E6,-1.3921997E4,-6.4303785E4,-2.1625066E5,3.851808E5,-4.0314466E5,-9.1084794E5,-1.0482206E4,5.651805E4,-7.83344E4,-5.4116756E5,1.2450961E5,4.5335303E5,7.434497E5,4.245618E5,2.4057418E6,3.8992688E5,4.812033E4,-1.6475994E5,3.7897068E3,1.6377886E5,-5.1655016E4,3.52429E4],"categories":[],"categories_nodes":[],"categories_segments":[],"categories_sizes":[],"default_left":[true,true,true,true,true,true,true,true,true,true,true,true,true,true,true,true,false,true,true,true,true,true,true,true,true,true,true,true,true,true,true,false,false,false,false,false,false,false,false,false,false,false,false,false,false,false,false,false,false,false,false,false,false,false,false,false,false,false,false,false,false],"id":16,"left_children":[1,3,5,7,9,11,13,15,17,19,21,23,25,27,29,31,-1,33,35,37,39,41,43,45,47,49,51,53,55,57,59,-1,-1,-1,-1,-1,-1,-1,-1,-1,-1,-1,-1,-1,-1,-1,-1,-1,-1,-1,-1,-1,-1,-1,-1,-1,-1,-1,-1,-1,-1],"loss_changes":[3.4649657E13,6.161906E13,8.431188E13,2.4899E13,1.2719936E14,3.4214112E14,5.2334525E13,7.947069E12,1.5399203E13,2.1504578E13,4.7850247E13,1.3841509E14,4.3258843E13,5.8045577E13,4.6007304E13,5.9940206E12,0E0,1.7554367E13,1.9499856E13,5.3899952E11,1.9582866E13,1.2883826E13,2.857727E13,4.819308E13,1.1676446E14,2.3766218E13,2.243899E13,6.0668984E13,4.183065E13,3.2078272E13,6.204237E13,0E0,0E0,0E0,0E0,0E0,0E0,0E0,0E0,0E0,0E0,0E0,0E0,0E0,0E0,0E0,0E0,0E0,0E0,0E0,0E0,0E0,0E0,0E0,0E0,0E0,0E0,0E0,0E0,0E0,0E0],"parents":[2147483647,0,0,1,1,2,2,3,3,4,4,5,5,6,6,7,7,8,8,9,9,10,10,11,11,12,12,13,13,14,14,15,15,17,17,18,18,19,19,20,20,21,21,22,22,23,23,24,24,25,25,26,26,27,27,28,28,29,29,30,30],"right_children":[2,4,6,8,10,12,14,16,18,20,22,24,26,28,30,32,-1,34,36,38,40,42,44,46,48,50,52,54,56,58,60,-1,-1,-1,-1,-1,-1,-1,-1,-1,-1,-1,-1,-1,-1,-1,-1,-1,-1,-1,-1,-1,-1,-1,-1,-1,-1,-1,-1,-1,-1],"split_conditions":[4.5E0,5E-1,1.15E1,2.0055E3,2.01E2,1.05E1,5.8959E4,2.087E3,1.6825E3,1.9595E3,2.0145E3,3.45E0,2.0105E3,1.3615E3,1.7995E3,1.9955E3,4.8751666E5,1.985E2,1.76E2,1.27E2,1.75E0,2.0305E3,2.495E2,2.0035E3,2.0145E3,1.702E3,1.66E2,1.9765E3,5.25E1,2.095E2,2.893E3,-1.188311E4,4.4676616E3,1.6295675E4,-3.583556E4,5.8909117E4,1.7836297E4,-3.1827544E5,-9.251395E5,-4.176599E3,-1.9291137E4,-6.48752E4,1.1555425E5,-1.209434E5,-2.732544E5,-3.1446619E3,1.6955416E4,-2.350032E4,-1.6235028E5,3.7352883E4,1.3600592E5,2.2303492E5,1.2736855E5,7.2172256E5,1.1697807E5,1.4436099E4,-4.9427984E4,1.1369121E3,4.913366E4,-1.5496505E4,1.057287E4],"split_indices":[0,0,0,1,2,0,11,15,12,1,1,9,1,12,15,1,0,2,2,2,9,15,2,1,1,12,2,1,0,2,16,0,0,0,0,0,0,0,0,0,0,0,0,0,0,0,0,0,0,0,0,0,0,0,0,0,0,0,0,0,0],"split_type":[0,0,0,0,0,0,0,0,0,0,0,0,0,0,0,0,0,0,0,0,0,0,0,0,0,0,0,0,0,0,0,0,0,0,0,0,0,0,0,0,0,0,0,0,0,0,0,0,0,0,0,0,0,0,0,0,0,0,0,0,0],"sum_hessian":[2.94557E5,1.09485E5,1.85072E5,2.1172E4,8.8313E4,6.2256E4,1.22816E5,9.206E3,1.1966E4,8.7215E4,1.098E3,5.9355E4,2.901E3,1.9215E4,1.03601E5,9.204E3,2E0,7.639E3,4.327E3,3E0,8.7212E4,6.28E2,4.7E2,5.4678E4,4.677E3,1.084E3,1.817E3,2.53E2,1.8962E4,5.1972E4,5.1629E4,2.986E3,6.218E3,7.006E3,6.33E2,1.741E3,2.586E3,2E0,1E0,7.8659E4,8.553E3,5.91E2,3.7E1,2.87E2,1.83E2,1.4673E4,4.0005E4,4.048E3,6.29E2,7.78E2,3.06E2,2.59E2,1.558E3,1.5E1,2.38E2,1.799E4,9.72E2,5.0688E4,1.284E3,4.1378E4,1.0251E4],"tree_param":{"num_deleted":"0","num_feature":"18","num_nodes":"61","size_leaf_vector":"0"}},{"base_weights":[1.7408546E3,7.888739E4,5.793571E2,7.099149E4,8.906626E5,-6.4855566E3,1.3979345E4,4.4738006E5,5.6903883E4,-1.8396284E6,1.226473E6,-6.825133E3,7.706452E5,1.3524149E4,1.0989518E6,3.8324162E5,3.590694E6,7.814221E4,-1.5346536E5,-2.2522792E6,-8.13768E5,4.6551805E6,6.8617856E5,-3.7925945E3,-5.6019945E4,1.126557E5,2.2926745E6,6.431663E4,4.5872773E3,1.5655131E5,2.475626E6,3.1614153E5,2.82046E6,3.08131E5,5.07791E6,4.911055E4,3.7749838E5,1.5563627E5,-5.994055E5,5.545457E6,5.470375E5,-4.804345E4,1.515181E6,-3.357039E3,-3.929489E5,5.658728E5,-6.761746E4,-2.192079E5,1.9806989E6,1.718847E6,4.875557E6,6.309316E4,3.1077815E6,1.9481545E4,-4.430375E4,-5.788313E5,5.7992044E5,1.755464E6,3.066375E6],"categories":[],"categories_nodes":[],"categories_segments":[],"categories_sizes":[],"default_left":[true,true,true,true,true,true,true,true,true,true,true,true,true,true,true,true,true,true,true,false,false,true,true,true,true,true,true,true,true,true,true,false,false,false,false,false,false,false,false,false,false,false,false,false,false,false,false,false,false,false,false,false,false,false,false,false,false,false,false],"id":17,"left_children":[1,3,5,7,9,11,13,15,17,19,21,23,25,27,29,31,33,35,37,-1,-1,39,41,43,45,47,49,51,53,55,57,-1,-1,-1,-1,-1,-1,-1,-1,-1,-1,-1,-1,-1,-1,-1,-1,-1,-1,-1,-1,-1,-1,-1,-1,-1,-1,-1,-1],"loss_changes":[2.6393975E13,2.7940727E13,2.7472307E13,2.2923404E13,4.0764373E13,5.014823E13,4.946149E13,3.0074632E13,1.8656503E13,2.8377822E11,6.7201143E13,2.8334377E13,8.286448E13,4.5455392E13,5.4102323E13,2.429313E13,1.3080977E13,3.2928315E13,5.2886323E13,0E0,0E0,1.5253341E13,2.0767637E13,3.0322415E13,7.957675E13,3.701038E13,2.8672883E13,5.559436E13,6.201185E13,8.430471E12,1.8494867E12,0E0,0E0,0E0,0E0,0E0,0E0,0E0,0E0,0E0,0E0,0E0,0E0,0E0,0E0,0E0,0E0,0E0,0E0,0E0,0E0,0E0,0E0,0E0,0E0,0E0,0E0,0E0,0E0],"parents":[2147483647,0,0,1,1,2,2,3,3,4,4,5,5,6,6,7,7,8,8,9,9,10,10,11,11,12,12,13,13,14,14,15,15,16,16,17,17,18,18,21,21,22,22,23,23,24,24,25,25,26,26,27,27,28,28,29,29,30,30],"right_children":[2,4,6,8,10,12,14,16,18,20,22,24,26,28,30,32,34,36,38,-1,-1,40,42,44,46,48,50,52,54,56,58,-1,-1,-1,-1,-1,-1,-1,-1,-1,-1,-1,-1,-1,-1,-1,-1,-1,-1,-1,-1,-1,-1,-1,-1,-1,-1,-1,-1],"split_conditions":[2.5E0,5.885E2,1.5515E3,1.251E3,4.477E3,3.23E3,6.04E2,1.9685E3,1.9125E3,2.012E3,1.267E3,1.8545E3,2.0155E3,1.6255E3,4.45E3,1.2485E3,9.55E1,2.0165E3,2.0135E3,-6.756838E5,-2.441304E5,4.75E1,2.15E4,3.365E2,5E-1,1.055E2,4.905E2,9.65E1,2.15E1,6.45E1,3.17375E4,9.484246E4,8.4613806E5,9.2439305E4,1.523373E6,1.4733166E4,1.13249516E5,4.6690883E4,-1.7982166E5,1.6636371E6,1.6411125E5,-1.4413035E4,4.545543E5,-1.00711176E3,-1.1788468E5,1.6976184E5,-2.0285238E4,-6.5762375E4,5.942097E5,5.1565412E5,1.4626671E6,1.892795E4,9.323345E5,5.844464E3,-1.3291126E4,-1.736494E5,1.7397614E5,5.2663925E5,9.1991256E5],"split_indices":[14,2,12,12,13,16,2,15,15,1,12,15,1,12,11,12,0,1,1,0,0,0,11,2,5,0,2,0,0,11,11,0,0,0,0,0,0,0,0,0,0,0,0,0,0,0,0,0,0,0,0,0,0,0,0,0,0,0,0],"split_type":[0,0,0,0,0,0,0,0,0,0,0,0,0,0,0,0,0,0,0,0,0,0,0,0,0,0,0,0,0,0,0,0,0,0,0,0,0,0,0,0,0,0,0,0,0,0,0,0,0,0,0,0,0,0,0,0,0,0,0],"sum_hessian":[2.94557E5,4.368E3,2.90189E5,4.327E3,4.1E1,1.9001E5,1.00179E5,1.55E2,4.172E3,4E0,3.7E1,1.89928E5,8.2E1,1.00138E5,4.1E1,1.53E2,2E0,3.79E3,3.82E2,2E0,2E0,4E0,3.3E1,1.78901E5,1.1027E4,5.8E1,2.4E1,1.4982E4,8.5156E4,2.5E1,1.6E1,1.5E2,3E0,1E0,1E0,3.456E3,3.34E2,2.26E2,1.56E2,3E0,1E0,1.8E1,1.5E1,1.78702E5,1.99E2,2.01E2,1.0826E4,5E1,8E0,2.1E1,3E0,1.4977E4,5E0,6.5272E4,1.9884E4,9E0,1.6E1,9E0,7E0],"tree_param":{"num_deleted":"0","num_feature":"18","num_nodes":"59","size_leaf_vector":"0"}},{"base_weights":[1.2485695E3,6.615123E4,5.0919437E1,-1.0017902E4,1.3872877E5,-1.8849074E4,4.123742E3,-1.8045547E4,1.5919589E6,6.530262E5,1.0264345E5,-1.9159998E4,1.3110151E6,2.4753865E3,8.430699E4,-2.4075668E4,8.459342E5,5.3385975E6,4.254249E5,7.5566925E6,5.7178825E5,7.0754984E4,7.272412E5,2.27412E6,-1.929383E4,-5.582838E5,2.31545E6,4.137622E3,-1.0925111E5,1.8389844E5,-2.7583266E4,-1.1524518E6,-1.701667E4,-1.6214029E6,1.255689E6,-6.167297E5,1.3966754E6,4.4319938E5,4.932322E6,1.23924305E5,-3.2549134E5,5.254403E6,4.9286966E5,2.7451155E6,6.660646E5,-1.9476361E4,1.3200275E6,-1.04288775E6,-1.7641088E5,-1.3940012E6,3.0445148E6,3.2393506E3,2.0595434E5,-4.2775727E4,-2.3145519E5,1.3055338E5,6.132409E5,-3.761573E4,8.35112E5],"categories":[],"categories_nodes":[],"categories_segments":[],"categories_sizes":[],"default_left":[true,true,true,true,true,true,true,true,true,true,true,true,true,true,true,true,true,false,true,false,true,true,true,true,true,true,true,true,true,true,true,false,false,false,false,false,false,false,false,false,false,false,false,false,false,false,false,false,false,false,false,false,false,false,false,false,false,false,false],"id":18,"left_children":[1,3,5,7,9,11,13,15,17,19,21,23,25,27,29,31,33,-1,35,-1,37,39,41,43,45,47,49,51,53,55,57,-1,-1,-1,-1,-1,-1,-1,-1,-1,-1,-1,-1,-1,-1,-1,-1,-1,-1,-1,-1,-1,-1,-1,-1,-1,-1,-1,-1],"loss_changes":[2.2896185E13,2.9505224E13,2.2263324E13,3.3529287E13,5.0653586E13,2.1227064E13,3.1449376E13,1.3529642E13,5.4546387E13,9.60695E13,5.083767E13,1.5777952E13,2.3823745E13,4.3301005E13,5.3414965E13,2.0498755E13,2.0234036E13,0E0,1.1995496E13,0E0,9.762145E13,5.1278076E13,1.2897898E14,4.4373534E11,1.2557807E13,7.41309E11,2.5879497E13,4.1647665E13,2.7756436E13,5.8002694E13,1.9574316E13,0E0,0E0,0E0,0E0,0E0,0E0,0E0,0E0,0E0,0E0,0E0,0E0,0E0,0E0,0E0,0E0,0E0,0E0,0E0,0E0,0E0,0E0,0E0,0E0,0E0,0E0,0E0,0E0],"parents":[2147483647,0,0,1,1,2,2,3,3,4,4,5,5,6,6,7,7,8,8,9,9,10,10,11,11,12,12,13,13,14,14,15,15,16,16,18,18,20,20,21,21,22,22,23,23,24,24,25,25,26,26,27,27,28,28,29,29,30,30],"right_children":[2,4,6,8,10,12,14,16,18,20,22,24,26,28,30,32,34,-1,36,-1,38,40,42,44,46,48,50,52,54,56,58,-1,-1,-1,-1,-1,-1,-1,-1,-1,-1,-1,-1,-1,-1,-1,-1,-1,-1,-1,-1,-1,-1,-1,-1,-1,-1,-1,-1],"split_conditions":[8.9625E3,2.6395E3,2.0015E3,4.435E2,1.9795E3,3.619E3,1.9275E3,1.8E1,4.86E2,2.659E3,1.9415E3,1.928E3,8.8E1,1.8975E3,1.912E3,1.9465E3,1.95E2,1.6015794E6,2.018E3,2.2670078E6,1.764E3,3.1E0,4.6625E3,1.9245E3,2.0345E3,2.85E1,1.5E0,3.1625E3,2.0145E3,2.22E2,4.39E2,-3.4573553E5,-5.105001E3,-4.8642088E5,3.7670672E5,-1.850189E5,4.1900262E5,1.3295981E5,1.4796966E6,3.7177293E4,-9.764741E4,1.576321E6,1.478609E5,8.235347E5,1.9981939E5,-5.8429087E3,3.9600828E5,-3.1286634E5,-5.2923266E4,-4.182004E5,9.1335444E5,9.7180524E2,6.1786305E4,-1.2832719E4,-6.943656E4,3.9166016E4,1.8397227E5,-1.128472E4,2.5053361E5],"split_indices":[11,16,1,2,1,16,12,5,2,16,12,1,0,12,15,1,11,0,1,0,12,9,13,1,15,0,10,16,1,2,2,0,0,0,0,0,0,0,0,0,0,0,0,0,0,0,0,0,0,0,0,0,0,0,0,0,0,0,0],"split_type":[0,0,0,0,0,0,0,0,0,0,0,0,0,0,0,0,0,0,0,0,0,0,0,0,0,0,0,0,0,0,0,0,0,0,0,0,0,0,0,0,0,0,0,0,0,0,0,0,0,0,0,0,0,0,0,0,0,0,0],"sum_hessian":[2.94557E5,5.336E3,2.89221E5,2.604E3,2.732E3,5.1275E4,2.37946E5,2.592E3,1.2E1,1.78E2,2.554E3,5.1264E4,1.1E1,2.33154E5,4.792E3,2.575E3,1.7E1,2E0,1E1,1E0,1.77E2,2.431E3,1.23E2,2E0,5.1262E4,4E0,7E0,2.29737E5,3.417E3,2.535E3,2.257E3,1.5E1,2.56E3,2E0,1.5E1,5E0,5E0,1.73E2,4E0,2.144E3,2.87E2,5E0,1.18E2,1E0,1E0,5.1256E4,6E0,1E0,3E0,1E0,6E0,2.2872E5,1.017E3,2.214E3,1.203E3,2.256E3,2.79E2,2.232E3,2.5E1],"tree_param":{"num_deleted":"0","num_feature":"18","num_nodes":"59","size_leaf_vector":"0"}},{"base_weights":[9.0422955E2,2.6738293E4,-2.1811387E3,2.3501867E4,1.9526617E5,3.4001372E5,-2.651241E3,-4.333624E4,3.0968707E4,1.3379453E5,3.7551062E5,3.0582097E5,1.810542E6,-1.1903873E4,1.0780687E4,-6.33327E5,-3.7168363E4,2.4857947E5,2.8395686E4,1.7515875E5,1.7043312E4,3.1177662E5,8.5579575E5,2.3383811E5,6.222703E5,-4.720081E3,-3.760551E4,-4.5834307E3,3.9815223E4,-3.2245434E5,-8.8865844E5,9.349352E5,-4.707555E4,1.3744989E5,4.6651903E5,3.556098E4,-3.8021426E4,2.8683922E5,1.5948161E5,8.768491E4,-2.832553E4,1.8596495E5,4.638449E5,2.7288853E5,3.1789346E3,6.418096E5,-3.1412338E5,-5.862278E3,1.9515466E5,-2.643112E4,-1.5552019E5,7.2408345E3,-6.2470125E4,1.1102676E5,-2.3001077E2],"categories":[],"categories_nodes":[],"categories_segments":[],"categories_sizes":[],"default_left":[true,true,true,true,true,true,true,true,true,true,true,true,false,true,true,true,true,true,true,true,true,true,false,true,true,true,true,true,true,false,false,false,false,false,false,false,false,false,false,false,false,false,false,false,false,false,false,false,false,false,false,false,false,false,false],"id":19,"left_children":[1,3,5,7,9,11,13,15,17,19,21,23,-1,25,27,29,31,33,35,37,39,41,-1,43,45,47,49,51,53,-1,-1,-1,-1,-1,-1,-1,-1,-1,-1,-1,-1,-1,-1,-1,-1,-1,-1,-1,-1,-1,-1,-1,-1,-1,-1],"loss_changes":[2.347857E13,1.7136039E13,4.2330204E13,1.539015E13,6.509071E12,1.7597894E13,3.2657734E13,1.1253688E13,1.5523375E13,2.1364049E12,4.3247573E12,7.9182273E12,0E0,2.8727772E13,4.7812553E13,2.2534664E12,2.959135E13,7.783005E12,1.3047628E13,5.2677522E11,3.7746023E11,2.4774244E12,0E0,2.6112604E12,1.3908794E12,2.7763113E13,4.4780638E13,4.7976156E13,1.0576892E14,0E0,0E0,0E0,0E0,0E0,0E0,0E0,0E0,0E0,0E0,0E0,0E0,0E0,0E0,0E0,0E0,0E0,0E0,0E0,0E0,0E0,0E0,0E0,0E0,0E0,0E0],"parents":[2147483647,0,0,1,1,2,2,3,3,4,4,5,5,6,6,7,7,8,8,9,9,10,10,11,11,13,13,14,14,15,15,16,16,17,17,18,18,19,19,20,20,21,21,23,23,24,24,25,25,26,26,27,27,28,28],"right_children":[2,4,6,8,10,12,14,16,18,20,22,24,-1,26,28,30,32,34,36,38,40,42,-1,44,46,48,50,52,54,-1,-1,-1,-1,-1,-1,-1,-1,-1,-1,-1,-1,-1,-1,-1,-1,-1,-1,-1,-1,-1,-1,-1,-1,-1,-1],"split_conditions":[1.45E0,2.725E3,3.5E0,5.25E1,1.7E1,2.055E2,5E-1,3.2E2,2.255E3,4E0,1.833E3,1.816E3,5.431626E5,1.65E1,1.85E1,1.5375E3,1.043E3,8.2E1,1.325E2,1.325E2,1.5E0,4.4995E3,2.5673873E5,1.582E3,1.6E2,1.9425E3,1.851E3,1.15E1,2.15E1,-9.6736305E4,-2.6659753E5,2.8048056E5,-1.4122666E4,4.123497E4,1.3995572E5,1.0668295E4,-1.1406428E4,8.6051766E4,4.7844484E4,2.6305473E4,-8.497659E3,5.578949E4,1.3915348E5,8.186656E4,9.536804E2,1.9254289E5,-9.4237016E4,-1.7586835E3,5.85464E4,-7.929336E3,-4.665606E4,2.1722505E3,-1.874104E4,3.3308027E4,-6.9003235E1],"split_indices":[9,16,17,2,0,2,7,11,16,5,15,15,0,0,0,12,11,2,2,2,8,13,0,12,2,12,15,0,0,0,0,0,0,0,0,0,0,0,0,0,0,0,0,0,0,0,0,0,0,0,0,0,0,0,0],"split_type":[0,0,0,0,0,0,0,0,0,0,0,0,0,0,0,0,0,0,0,0,0,0,0,0,0,0,0,0,0,0,0,0,0,0,0,0,0,0,0,0,0,0,0,0,0,0,0,0,0,0,0,0,0,0,0],"sum_hessian":[2.94557E5,3.1425E4,2.63132E5,3.0834E4,5.91E2,3.6E2,2.62772E5,3.098E3,2.7736E4,4.42E2,1.49E2,3.53E2,7E0,1.55592E5,1.0718E5,3.1E1,3.067E3,3.23E2,2.7413E4,3.26E2,1.16E2,1.33E2,1.6E1,2.89E2,6.4E1,1.21604E5,3.3988E4,7.0091E4,3.7089E4,1.5E1,1.6E1,3E1,3.037E3,2.15E2,1.08E2,2.4744E4,2.669E3,3.8E1,2.88E2,4.5E1,7.1E1,7.4E1,5.9E1,2.47E2,4.2E1,6.3E1,1E0,1.20914E5,6.9E2,3.1047E4,2.941E3,5.8203E4,1.1888E4,1.3349E4,2.374E4],"tree_param":{"num_deleted":"0","num_feature":"18","num_nodes":"55","size_leaf_vector":"0"}},{"base_weights":[6.378137E2,-8.65329E3,7.5090054E3,-2.8652913E3,-8.693125E4,3.4331508E4,-2.649655E3,-5.299847E3,1.1770343E5,-4.675253E3,-1.5996462E5,1.9316457E4,2.5998005E5,-5.7411812E4,1.4664469E3,-2.2633652E4,6.176954E3,-2.0073542E6,1.2134009E5,-2.3101766E4,2.4295173E5,-1.1342794E5,-3.3241722E5,3.8664066E4,-2.6894145E4,1.0259184E5,3.203496E5,-3.746986E4,-2.2035892E5,1.6341256E5,1.0545816E2,-1.4028143E4,-4.6597723E4,9.366685E3,-5.7594223E4,-8.907042E5,-2.6786522E6,4.160305E5,1.0382223E5,-1.1955616E5,1.043426E3,-8.7317E4,3.3492316E5,9.96819E5,-1.18976945E5,-1.3373645E5,-6.628205E5,2.9717735E6,3.8376566E4,-6.4522407E3,-1.7955864E5,1.8585147E5,-2.0538755E5,3.160037E5,4.71467E6,-2.967006E6,-3.6315973E4,-2.7764884E5,-1.5052383E5,1.4677194E6,1.22299664E5,6.522218E3,-2.693863E4],"categories":[],"categories_nodes":[],"categories_segments":[],"categories_sizes":[],"default_left":[true,true,true,true,true,true,true,true,true,true,true,true,true,true,true,true,true,true,true,true,true,true,true,true,true,true,true,true,true,true,true,false,false,false,false,false,false,false,false,false,false,false,false,false,false,false,false,false,false,false,false,false,false,false,false,false,false,false,false,false,false,false,false],"id":20,"left_children":[1,3,5,7,9,11,13,15,17,19,21,23,25,27,29,31,33,35,37,39,41,43,45,47,49,51,53,55,57,59,61,-1,-1,-1,-1,-1,-1,-1,-1,-1,-1,-1,-1,-1,-1,-1,-1,-1,-1,-1,-1,-1,-1,-1,-1,-1,-1,-1,-1,-1,-1,-1,-1],"loss_changes":[1.8804931E13,5.6737147E13,4.6139517E13,3.4228425E13,5.1795334E13,1.5759359E14,2.768385E13,2.2738597E13,1.808011E13,1.8512741E13,3.6614177E13,3.899477E13,2.7540337E13,2.7891818E13,2.5177497E13,9.389094E12,1.3989039E13,6.1253406E11,1.1856022E13,8.794088E12,8.5646996E12,2.2285071E13,6.3586798E13,2.5810442E13,4.016917E13,2.0705823E13,3.8557062E13,2.5755327E13,3.703E12,5.087038E13,1.965844E13,0E0,0E0,0E0,0E0,0E0,0E0,0E0,0E0,0E0,0E0,0E0,0E0,0E0,0E0,0E0,0E0,0E0,0E0,0E0,0E0,0E0,0E0,0E0,0E0,0E0,0E0,0E0,0E0,0E0,0E0,0E0,0E0],"parents":[2147483647,0,0,1,1,2,2,3,3,4,4,5,5,6,6,7,7,8,8,9,9,10,10,11,11,12,12,13,13,14,14,15,15,16,16,17,17,18,18,19,19,20,20,21,21,22,22,23,23,24,24,25,25,26,26,27,27,28,28,29,29,30,30],"right_children":[2,4,6,8,10,12,14,16,18,20,22,24,26,28,30,32,34,36,38,40,42,44,46,48,50,52,54,56,58,60,62,-1,-1,-1,-1,-1,-1,-1,-1,-1,-1,-1,-1,-1,-1,-1,-1,-1,-1,-1,-1,-1,-1,-1,-1,-1,-1,-1,-1,-1,-1,-1,-1],"split_conditions":[5.5E0,1.815E2,1.15E1,2.55E0,1.5E0,1.05E1,1.25E1,2.4795E3,1.9625E3,2.995E2,1.896E3,1.895E2,1.4675E3,1.615E2,1.3595E3,2.463E3,2.827E3,1.27E2,3.0116E4,8.904E4,2.0105E3,2.5275E3,2.0145E3,2.95E1,9.5E0,2.89E2,4E0,1.05E2,4.6035E3,1.9775E3,1.7135E3,-4.208443E3,-1.3979317E4,2.8100054E3,-1.7278268E4,-2.6721128E5,-8.035957E5,1.2480916E5,3.114667E4,-3.5866848E4,3.1302783E2,-2.6195102E4,1.0047695E5,2.9904572E5,-3.5693086E4,-4.0120938E4,-1.9884616E5,8.9153206E5,1.1512971E4,-1.9356722E3,-5.3867594E4,5.575544E4,-6.1616266E4,9.480111E4,1.414401E6,-8.901018E5,-1.0894792E4,-8.329466E4,-4.515715E4,4.4031584E5,3.6689902E4,1.9566654E3,-8.0815894E3],"split_indices":[0,2,0,9,0,0,0,16,1,2,15,2,12,2,12,16,16,2,11,11,1,16,1,2,0,2,5,11,13,1,12,0,0,0,0,0,0,0,0,0,0,0,0,0,0,0,0,0,0,0,0,0,0,0,0,0,0,0,0,0,0,0,0],"split_type":[0,0,0,0,0,0,0,0,0,0,0,0,0,0,0,0,0,0,0,0,0,0,0,0,0,0,0,0,0,0,0,0,0,0,0,0,0,0,0,0,0,0,0,0,0,0,0,0,0,0,0,0,0,0,0,0,0,0,0,0,0,0,0],"sum_hessian":[2.94557E5,1.25227E5,1.6933E5,1.16606E5,8.621E3,4.6514E4,1.22816E5,1.14299E5,2.307E3,4.055E3,4.566E3,4.3613E4,2.901E3,8.585E3,1.14231E5,4.5531E4,6.8768E4,3E0,2.304E3,3.775E3,2.8E2,3.597E3,9.69E2,3.0742E4,1.2871E4,8.05E2,2.096E3,7.65E3,9.35E2,9.51E2,1.1328E5,3.3502E4,1.2029E4,6.5493E4,3.275E3,2E0,1E0,1.28E2,2.176E3,7.55E2,3.02E3,6.1E1,2.19E2,1.7E1,3.58E3,6.06E2,3.63E2,2E0,3.074E4,1.1352E4,1.519E3,6.34E2,1.71E2,2.095E3,1E0,2E0,7.648E3,5.12E2,4.23E2,2.8E1,9.23E2,9.1557E4,2.1723E4],"tree_param":{"num_deleted":"0","num_feature":"18","num_nodes":"63","size_leaf_vector":"0"}},{"base_weights":[4.4954895E2,3.9553218E3,-1.991232E4,-7.8121074E3,1.01462705E4,-1.1191869E4,-6.253053E4,-8.065261E3,1.0888871E6,1.2051281E4,-9.571127E4,-8.944966E3,-1.10833016E5,-1.1366822E5,-3.5545914E4,-8.849527E5,-7.7917295E3,1.4481985E6,-2.786865E5,9.195955E3,2.9132694E5,3.3279145E6,-9.92091E4,-3.3384227E4,1.8816001E3,-1.046741E5,-2.8825838E5,-9.830183E4,-1.8089544E5,-3.029891E4,-2.3871445E5,2.3467595E6,-1.0995092E6,2.0016548E6,-7.977315E3,1.502082E6,3.1997288E5,-5.0824938E5,-9.423344E4,4.4119478E5,8.6691455E3,4.114823E5,2.875255E4,4.3467365E6,6.451351E5,-1.1421832E5,6.9644925E5,-3.3843438E4,5.894069E5,-4.338842E3,2.01731E4,-7.260855E4,-1.2758987E5,-6.218099E4,-3.8528272E5,-1.2355551E5,-5.9481875E4,-3.1595747E5,-1.4502117E5,-1.5805709E4,-9.6167766E4,-3.5374678E5,-1.07666445E5],"categories":[],"categories_nodes":[],"categories_segments":[],"categories_sizes":[],"default_left":[true,true,true,true,true,true,true,true,true,true,true,true,true,true,true,true,true,true,true,true,true,true,true,true,true,true,true,true,true,true,true,false,false,false,false,false,false,false,false,false,false,false,false,false,false,false,false,false,false,false,false,false,false,false,false,false,false,false,false,false,false,false,false],"id":21,"left_children":[1,3,5,7,9,11,13,15,17,19,21,23,25,27,29,31,33,35,37,39,41,43,45,47,49,51,53,55,57,59,61,-1,-1,-1,-1,-1,-1,-1,-1,-1,-1,-1,-1,-1,-1,-1,-1,-1,-1,-1,-1,-1,-1,-1,-1,-1,-1,-1,-1,-1,-1,-1,-1],"loss_changes":[2.1026832E13,1.8307164E13,1.6079111E13,2.4060474E13,3.3207051E13,8.0404755E12,1.0137071E13,2.0767566E13,1.023129E13,1.2898293E14,3.519007E13,9.29443E12,8.352841E11,2.6040693E12,5.122484E12,2.130168E13,3.230592E13,4.9205897E11,1.6382381E11,3.6435785E13,5.163506E13,5.3955925E12,3.4819447E13,3.104108E12,2.7699776E12,5.543323E11,5.4635292E11,2.0200083E12,2.2362928E12,4.4777005E12,1.7859588E12,0E0,0E0,0E0,0E0,0E0,0E0,0E0,0E0,0E0,0E0,0E0,0E0,0E0,0E0,0E0,0E0,0E0,0E0,0E0,0E0,0E0,0E0,0E0,0E0,0E0,0E0,0E0,0E0,0E0,0E0,0E0,0E0],"parents":[2147483647,0,0,1,1,2,2,3,3,4,4,5,5,6,6,7,7,8,8,9,9,10,10,11,11,12,12,13,13,14,14,15,15,16,16,17,17,18,18,19,19,20,20,21,21,22,22,23,23,24,24,25,25,26,26,27,27,28,28,29,29,30,30],"right_children":[2,4,6,8,10,12,14,16,18,20,22,24,26,28,30,32,34,36,38,40,42,44,46,48,50,52,54,56,58,60,62,-1,-1,-1,-1,-1,-1,-1,-1,-1,-1,-1,-1,-1,-1,-1,-1,-1,-1,-1,-1,-1,-1,-1,-1,-1,-1,-1,-1,-1,-1,-1,-1],"split_conditions":[2.47032E5,1.7055E3,1.8375E3,4.1E0,5.25E1,2.0125E3,2.0035E3,1.9385E3,4.25E0,4.95E1,1.11E3,1.9975E3,1.79E3,2.495E2,2.0135E3,1.9225E3,1.9395E3,1.1E1,1.5E0,1.9595E3,4.25E0,1.435E2,6.45E0,5.3999996E0,5E-1,2.0135E3,1.36E2,2.0005E3,1.8595E3,7E0,1.8985E3,7.040279E5,-3.2985278E5,6.0049644E5,-2.3931946E3,4.5062462E5,9.599187E4,-1.5247481E5,-2.8270033E4,1.3235844E5,2.6007437E3,1.23444695E5,8.625766E3,1.304021E6,1.9354055E5,-3.4265496E4,2.0893478E5,-1.0153031E4,1.7682206E5,-1.3016526E3,6.05193E3,-2.1782564E4,-3.827696E4,-1.8654297E4,-1.1558482E5,-3.7066652E4,-1.7844562E4,-9.478724E4,-4.350635E4,-4.741713E3,-2.885033E4,-1.0612404E5,-3.2299936E4],"split_indices":[11,15,15,9,0,1,1,1,9,0,12,1,12,2,1,1,1,5,0,1,9,0,9,9,7,1,2,1,15,17,15,0,0,0,0,0,0,0,0,0,0,0,0,0,0,0,0,0,0,0,0,0,0,0,0,0,0,0,0,0,0,0,0],"split_type":[0,0,0,0,0,0,0,0,0,0,0,0,0,0,0,0,0,0,0,0,0,0,0,0,0,0,0,0,0,0,0,0,0,0,0,0,0,0,0,0,0,0,0,0,0,0,0,0,0,0,0,0,0,0,0,0,0,0,0,0,0,0,0],"sum_hessian":[2.94557E5,2.51292E5,4.3265E4,8.663E4,1.64662E5,3.5917E4,7.348E3,8.6611E4,1.9E1,1.61752E5,2.91E3,3.5126E4,7.91E2,2.537E3,4.811E3,2.6E1,8.6585E4,1.5E1,4E0,1.60116E5,1.636E3,2E0,2.908E3,1.0783E4,2.4343E4,7.66E2,2.5E1,2.067E3,4.7E2,4.691E3,1.2E2,1E0,2.5E1,7E0,8.6578E4,1.4E1,1E0,1E0,3E0,1.94E2,1.59922E5,1.122E3,5.14E2,1E0,1E0,2.855E3,5.3E1,1.0776E4,7E0,1.8166E4,6.177E3,3.21E2,4.45E2,8E0,1.7E1,1.251E3,8.16E2,9.7E1,3.73E2,3.846E3,8.45E2,6.3E1,5.7E1],"tree_param":{"num_deleted":"0","num_feature":"18","num_nodes":"63","size_leaf_vector":"0"}},{"base_weights":[3.244908E2,1.3177604E4,-4.072733E3,1.1966617E4,2.4996381E5,-3.3454553E5,-3.7139585E3,1.4157816E4,-1.0421207E5,-7.760297E4,5.3918575E5,-2.3621158E5,-1.1629024E6,5.6514906E5,-4.0332722E3,1.229552E4,2.9556328E5,-1.1371496E5,2.5375292E6,-6.307148E5,3.4201188E5,2.9357112E5,1.3051262E6,9.629934E5,-2.8745738E5,2.4097172E5,-1.6189139E6,-3.6027078E5,1.1421886E6,-8.656214E5,-3.927074E3,-4.4723755E3,2.6138254E4,1.2527374E5,5.064565E5,-4.7416145E4,-5.756165E5,5.975995E5,2.8731118E6,1.6256141E6,-7.746463E5,6.066346E5,-8.598275E5,1.2399579E6,8.42555E4,4.558865E6,1.1423638E6,3.4087895E6,-2.2277536E5,-3.0789172E5,8.214506E5,-5.9759925E5,6.9591994E5,-9.779718E5,-2.3779625E6,-4.1858962E5,6.540422E5,1.4993866E6,-5.4678756E5,1.9947455E6,-1.0523565E6,-2.6216992E2,-2.0536893E4],"categories":[],"categories_nodes":[],"categories_segments":[],"categories_sizes":[],"default_left":[true,true,true,true,true,true,true,true,true,true,true,true,true,true,true,true,true,true,true,true,true,true,true,true,true,true,true,true,true,true,true,false,false,false,false,false,false,false,false,false,false,false,false,false,false,false,false,false,false,false,false,false,false,false,false,false,false,false,false,false,false,false,false],"id":22,"left_children":[1,3,5,7,9,11,13,15,17,19,21,23,25,27,29,31,33,35,37,39,41,43,45,47,49,51,53,55,57,59,61,-1,-1,-1,-1,-1,-1,-1,-1,-1,-1,-1,-1,-1,-1,-1,-1,-1,-1,-1,-1,-1,-1,-1,-1,-1,-1,-1,-1,-1,-1,-1,-1],"loss_changes":[1.6647887E13,2.1527244E13,2.6020724E13,1.9018925E13,3.6232336E13,1.9111747E13,3.9825764E13,3.842154E13,3.5007658E13,4.1992617E13,3.7806475E13,1.342802E13,1.6394675E13,6.6093964E13,2.0045474E13,1.6907498E13,1.7246575E13,4.220255E13,1.5380618E12,2.6590306E13,3.3279112E13,3.0600025E13,2.0741882E13,2.686073E13,4.9208424E12,3.086426E12,6.918039E12,3.1131477E12,4.6670574E13,1.6520715E13,1.3336685E13,0E0,0E0,0E0,0E0,0E0,0E0,0E0,0E0,0E0,0E0,0E0,0E0,0E0,0E0,0E0,0E0,0E0,0E0,0E0,0E0,0E0,0E0,0E0,0E0,0E0,0E0,0E0,0E0,0E0,0E0,0E0,0E0],"parents":[2147483647,0,0,1,1,2,2,3,3,4,4,5,5,6,6,7,7,8,8,9,9,10,10,11,11,12,12,13,13,14,14,15,15,16,16,17,17,18,18,19,19,20,20,21,21,22,22,23,23,24,24,25,25,26,26,27,27,28,28,29,29,30,30],"right_children":[2,4,6,8,10,12,14,16,18,20,22,24,26,28,30,32,34,36,38,40,42,44,46,48,50,52,54,56,58,60,62,-1,-1,-1,-1,-1,-1,-1,-1,-1,-1,-1,-1,-1,-1,-1,-1,-1,-1,-1,-1,-1,-1,-1,-1,-1,-1,-1,-1,-1,-1,-1,-1],"split_conditions":[1.5E0,5.11E2,8.25E2,5.25E1,2.0155E4,2.8475E3,1.0015E3,4.95E1,1.1E1,1.938E3,3E1,1.9485E3,1.6215E3,2.3E1,1.9415E3,5.5E0,1.934E3,5.021E3,2.006E3,2.014E3,1.25875E4,4.2E0,2.03265E4,5.5E0,2.0225E3,1.87E2,3.25E0,1.8E1,1.86E3,1.927E3,1.8405E3,-1.3417126E3,7.8414766E3,3.7582125E4,1.5193695E5,-1.4224844E4,-1.7268495E5,1.7927986E5,8.6193356E5,4.8768425E5,-2.323939E5,1.8199039E5,-2.5794827E5,3.7198738E5,2.527665E4,1.3676595E6,3.4270912E5,1.0226369E6,-6.683261E4,-9.2367516E4,2.464352E5,-1.7927978E5,2.0877598E5,-2.9339156E5,-7.1338875E5,-1.2557689E5,1.9621266E5,4.49816E5,-1.6403628E5,5.984237E5,-3.1570697E5,-7.865098E1,-6.161068E3],"split_indices":[10,2,11,0,11,16,11,0,17,15,0,1,12,0,1,0,15,13,1,1,11,9,11,11,12,2,9,5,12,1,15,0,0,0,0,0,0,0,0,0,0,0,0,0,0,0,0,0,0,0,0,0,0,0,0,0,0,0,0,0,0,0,0],"split_type":[0,0,0,0,0,0,0,0,0,0,0,0,0,0,0,0,0,0,0,0,0,0,0,0,0,0,0,0,0,0,0,0,0,0,0,0,0,0,0,0,0,0,0,0,0,0,0,0,0,0,0,0,0,0,0,0,0,0,0,0,0,0,0],"sum_hessian":[2.94557E5,7.5084E4,2.19473E5,7.4703E4,3.81E2,2.37E2,2.19236E5,7.3321E4,1.382E3,1.79E2,2.02E2,2.13E2,2.4E1,1.22E2,2.19114E5,7.284E4,4.81E2,1.378E3,4E0,7.7E1,1.02E2,1.54E2,4.8E1,8E0,2.05E2,6E0,1.8E1,4.7E1,7.5E1,2.6E1,2.19088E5,3.294E4,3.99E4,2.67E2,2.14E2,1.206E3,1.72E2,1E0,3E0,4E0,7.3E1,8.4E1,1.8E1,2.7E1,1.27E2,1E0,4.7E1,2E0,6E0,2.02E2,3E0,2E0,4E0,1.1E1,7E0,4.5E1,2E0,6.2E1,1.3E1,1E0,2.5E1,1.79486E5,3.9602E4],"tree_param":{"num_deleted":"0","num_feature":"18","num_nodes":"63","size_leaf_vector":"0"}},{"base_weights":[2.4106921E2,-1.5679053E3,2.8312062E4,1.3426417E3,-4.4076934E4,5.541475E5,1.8702855E4,1.5085034E4,-4.7124546E3,-6.117989E4,1.5244539E5,3.786518E5,9.098896E5,9.938496E5,1.512552E4,3.7180173E3,3.203321E4,-9.015522E3,1.805586E4,-7.749872E4,1.775806E5,6.769891E3,3.4094184E5,6.136536E5,2.8005594E5,9.411342E5,-1.1432E5,-3.03777E5,1.1333244E6,1.019616E5,-1.7962307E4,1.8819328E4,-1.8223996E4,1.4965984E5,2.6530266E4,-5.959223E3,-5.0441062E4,8.87156E4,9.154822E3,-2.3935255E5,-3.931134E4,7.552891E5,9.746452E4,5.9171494E5,-7.644671E4,3.2951347E5,3.7018385E6,6.3055456E5,-2.1710131E5,1.2105389E5,3.69679E5,6.906639E5,1.1119742E6,4.07422E5,-6.69741E5,1.3821431E6,7.495979E5,1.5407579E6,9.563904E4,8.434528E3,-1.4416622E5],"categories":[],"categories_nodes":[],"categories_segments":[],"categories_sizes":[],"default_left":[true,true,true,true,true,true,true,true,true,true,true,true,true,true,true,true,true,true,true,true,true,true,true,true,true,true,false,true,true,true,true,false,false,false,false,false,false,false,false,false,false,false,false,false,false,false,false,false,false,false,false,false,false,false,false,false,false,false,false,false,false],"id":23,"left_children":[1,3,5,7,9,11,13,15,17,19,21,23,25,27,29,31,33,35,37,39,41,43,45,47,49,51,-1,53,55,57,59,-1,-1,-1,-1,-1,-1,-1,-1,-1,-1,-1,-1,-1,-1,-1,-1,-1,-1,-1,-1,-1,-1,-1,-1,-1,-1,-1,-1,-1,-1],"loss_changes":[1.4957615E13,3.4237852E13,9.009732E13,2.1551353E13,5.961194E13,1.9633453E13,6.1081293E13,1.5260476E13,1.7613957E13,6.3577847E13,3.8989923E13,4.83291E12,3.4676912E12,1.1927393E13,5.0142346E13,1.5711453E13,2.0579942E13,1.914359E13,1.797255E13,9.4377175E13,4.824661E13,3.90843E13,2.2555725E13,1.02144724E12,2.1497884E12,3.5966157E12,0E0,2.0947801E12,4.501696E12,4.3654106E13,4.2099915E13,0E0,0E0,0E0,0E0,0E0,0E0,0E0,0E0,0E0,0E0,0E0,0E0,0E0,0E0,0E0,0E0,0E0,0E0,0E0,0E0,0E0,0E0,0E0,0E0,0E0,0E0,0E0,0E0,0E0,0E0],"parents":[2147483647,0,0,1,1,2,2,3,3,4,4,5,5,6,6,7,7,8,8,9,9,10,10,11,11,12,12,13,13,14,14,15,15,16,16,17,17,18,18,19,19,20,20,21,21,22,22,23,23,24,24,25,25,27,27,28,28,29,29,30,30],"right_children":[2,4,6,8,10,12,14,16,18,20,22,24,26,28,30,32,34,36,38,40,42,44,46,48,50,52,-1,54,56,58,60,-1,-1,-1,-1,-1,-1,-1,-1,-1,-1,-1,-1,-1,-1,-1,-1,-1,-1,-1,-1,-1,-1,-1,-1,-1,-1,-1,-1,-1,-1],"split_conditions":[2.9215E3,2.375E2,2.9225E3,5E-1,4.85E1,2.0175E3,5E-1,5E-1,1.5E0,1.911E3,1.936E3,2.0135E3,1.05061E5,5.8615E3,4.9055E3,1.395E2,3.5E0,1.8245E3,1.4425E3,6.97815E4,4.25E0,2.5975E3,1.21E2,2.1015E3,8.6831E4,2.9246E4,-3.4296E4,3.95E2,2.0175E3,1.7135E3,1.95E1,5.645799E3,-5.467199E3,4.4897953E4,7.95908E3,-1.787767E3,-1.5132319E4,2.6614682E4,2.7464468E3,-7.1805766E4,-1.1793402E4,2.2658675E5,2.9239357E4,1.7751448E5,-2.2934014E4,9.885405E4,1.1105516E6,1.8916638E5,-6.5130395E4,3.6316168E4,1.109037E5,2.0719917E5,3.3359228E5,1.222266E5,-2.0092231E5,4.1464297E5,2.2487938E5,4.6222738E5,2.8691713E4,2.5303586E3,-4.3249867E4],"split_indices":[16,2,16,8,0,1,5,7,8,12,15,1,11,11,13,2,14,15,12,11,9,16,0,15,11,11,0,2,1,11,0,0,0,0,0,0,0,0,0,0,0,0,0,0,0,0,0,0,0,0,0,0,0,0,0,0,0,0,0,0,0],"split_type":[0,0,0,0,0,0,0,0,0,0,0,0,0,0,0,0,0,0,0,0,0,0,0,0,0,0,0,0,0,0,0,0,0,0,0,0,0,0,0,0,0,0,0,0,0,0,0,0,0,0,0,0,0,0,0,0,0,0,0,0,0],"sum_hessian":[2.94557E5,2.76725E5,1.7832E4,2.58993E5,1.7732E4,3.19E2,1.7513E4,7.9213E4,1.7978E5,1.6313E4,1.419E3,2.15E2,1.04E2,6.3E1,1.745E4,4.7414E4,3.1799E4,1.51204E5,2.8576E4,1.527E4,1.043E3,8.01E2,6.18E2,6.2E1,1.53E2,1.01E2,3E0,6E0,5.7E1,4.814E3,1.2636E4,2.8085E4,1.9329E4,1.42E3,3.0379E4,1.40816E5,1.0388E4,3.196E3,2.538E4,2.914E3,1.2356E4,1.26E2,9.17E2,9.9E1,7.02E2,6.17E2,1E0,6.1E1,1E0,5.6E1,9.7E1,4.3E1,5.8E1,2E0,4E0,3.3E1,2.4E1,2E1,4.794E3,1.0451E4,2.185E3],"tree_param":{"num_deleted":"0","num_feature":"18","num_nodes":"61","size_leaf_vector":"0"}},{"base_weights":[1.8025845E2,3.919937E3,-1.0251269E4,3.1400393E3,8.845778E4,3.212042E6,-1.0499876E4,3.7629968E3,-1.08052945E5,-2.8990568E4,2.4015581E5,1.02031E7,-2.267895E5,-8.516199E3,-1.0380467E5,3.633605E3,4.6431534E5,-1.9707518E6,-9.386258E4,-7.143023E4,4.8111597E5,5.260307E5,6.3702723E4,2.3439969E5,-1.0357731E6,-6.177882E3,-6.530186E4,-9.4231336E4,-3.4254466E5,7.084384E3,-1.2454423E4,3.2998884E5,4.19479E6,-2.588972E6,-1.2301464E6,3.406636E5,-1.3538823E5,-4.8292216E5,-3.6945852E3,7.085086E4,1.6713939E6,1.5639282E6,3.8560588E5,3.9250395E4,2.2171168E6,3.555256E5,-6.4489E4,-2.6431158E4,3.222653E2,2.6725578E5,-7.204132E4,-9.648366E4,8.043514E5,-2.0002116E5,-4.5403397E5],"categories":[],"categories_nodes":[],"categories_segments":[],"categories_sizes":[],"default_left":[true,true,true,true,true,true,true,true,true,true,true,false,true,true,true,true,true,true,true,true,true,true,true,true,false,true,true,true,true,false,false,false,false,false,false,false,false,false,false,false,false,false,false,false,false,false,false,false,false,false,false,false,false,false,false],"id":24,"left_children":[1,3,5,7,9,11,13,15,17,19,21,-1,23,25,27,29,31,33,35,37,39,41,43,45,-1,47,49,51,53,-1,-1,-1,-1,-1,-1,-1,-1,-1,-1,-1,-1,-1,-1,-1,-1,-1,-1,-1,-1,-1,-1,-1,-1,-1,-1],"loss_changes":[1.1490912E13,1.4295316E13,6.2303744E13,1.4882466E13,3.5319626E13,1.4656036E14,1.4385341E13,1.273007E13,3.145457E13,2.4237666E13,4.3600117E13,0E0,2.1082572E12,1.0105704E13,3.665722E12,1.1857854E13,2.8681867E13,9.359002E11,2.1500418E13,2.8790686E13,4.187792E13,4.7493304E13,2.8136585E13,1.6774015E11,0E0,9.623702E12,6.765446E12,3.2288077E12,8.9435354E11,0E0,0E0,0E0,0E0,0E0,0E0,0E0,0E0,0E0,0E0,0E0,0E0,0E0,0E0,0E0,0E0,0E0,0E0,0E0,0E0,0E0,0E0,0E0,0E0,0E0,0E0],"parents":[2147483647,0,0,1,1,2,2,3,3,4,4,5,5,6,6,7,7,8,8,9,9,10,10,12,12,13,13,14,14,15,15,16,16,17,17,18,18,19,19,20,20,21,21,22,22,23,23,25,25,26,26,27,27,28,28],"right_children":[2,4,6,8,10,12,14,16,18,20,22,-1,24,26,28,30,32,34,36,38,40,42,44,46,-1,48,50,52,54,-1,-1,-1,-1,-1,-1,-1,-1,-1,-1,-1,-1,-1,-1,-1,-1,-1,-1,-1,-1,-1,-1,-1,-1,-1,-1],"split_conditions":[1.99937E5,3.0985E3,1.9405E3,5.145E3,1.924E3,2.35E5,2.0135E3,6.225E2,1.9635E3,5.408E3,5.206E3,3.06093E6,6.249995E5,7E0,5.1225E3,2.15E1,5E-1,6.8E3,1.9985E3,2.47205E4,2.0155E3,1.171E3,1.34E2,1.9385E3,-3.1073194E5,1.9985E3,1.9925E3,5.6E0,2.0145E3,2.1253152E3,-3.736327E3,9.899666E4,1.258437E6,-7.766916E5,-3.6904394E5,1.02199086E5,-4.0616473E4,-1.4487666E5,-1.1083756E3,2.1255258E4,5.014182E5,4.691785E5,1.15681766E5,1.1775119E4,6.6513506E5,1.0665768E5,-1.9346701E4,-7.9293477E3,9.667959E1,8.0176734E4,-2.1612396E4,-2.8945098E4,2.4130542E5,-6.0006348E4,-1.362102E5],"split_indices":[11,16,1,13,15,11,1,2,1,13,13,0,11,17,13,0,6,11,1,11,1,11,0,1,0,1,1,9,1,0,0,0,0,0,0,0,0,0,0,0,0,0,0,0,0,0,0,0,0,0,0,0,0,0,0],"split_type":[0,0,0,0,0,0,0,0,0,0,0,0,0,0,0,0,0,0,0,0,0,0,0,0,0,0,0,0,0,0,0,0,0,0,0,0,0,0,0,0,0,0,0,0,0,0,0,0,0,0,0,0,0,0,0],"sum_hessian":[2.94557E5,2.16826E5,7.7731E4,2.14845E5,1.981E3,5E0,7.7726E4,2.13649E5,1.196E3,1.117E3,8.64E2,1E0,4E0,7.6109E4,1.617E3,2.1359E5,5.9E1,8E0,1.188E3,1.032E3,8.5E1,3.29E2,5.35E2,3E0,1E0,7.31E4,3.009E3,1.556E3,6.1E1,1.75868E5,3.7722E4,5.8E1,1E0,3E0,5E0,1.03E2,1.085E3,1.45E2,8.87E2,6.4E1,2.1E1,3.8E1,2.91E2,5.3E2,5E0,2E0,1E0,1.776E4,5.534E4,5.9E1,2.95E3,1.553E3,3E0,2.8E1,3.3E1],"tree_param":{"num_deleted":"0","num_feature":"18","num_nodes":"55","size_leaf_vector":"0"}},{"base_weights":[1.4252141E2,-9.057206E1,1.5181128E5,2.1084768E4,-1.7313312E3,9.485328E4,6.292316E5,-5.089652E3,4.1825098E4,-1.4044321E4,2.7642607E3,6.9879025E5,3.5835492E4,5.1687805E6,4.226714E5,6.742805E3,-1.2058982E5,3.8653896E3,6.116623E4,-9.932503E3,-7.928864E4,1.179831E4,-6.5522017E3,5.018753E4,2.1683248E6,5.632308E4,-1.2164654E6,-3.369992E4,1.7565629E6,-1.5610456E4,3.6574004E4,-2.7274697E5,-9.198665E4,-7.73277E3,6.1141746E4,1.1135173E5,3.095604E4,1.1648077E3,-1.9999932E4,-2.3474052E6,-7.822196E4,7.659034E4,9.673698E3,1.6989998E2,-2.28032E4,1.5419724E6,-3.784266E5,4.0988222E6,4.7963738E5,-1.2288289E6,7.3966945E4,-1.4780455E6,4.57175E4,2.9064694E5,-7.972743E5,-4.4873375E4,2.3620275E6],"categories":[],"categories_nodes":[],"categories_segments":[],"categories_sizes":[],"default_left":[true,true,true,true,true,true,true,true,true,true,true,true,true,false,true,true,true,true,true,true,true,true,true,true,true,true,true,true,true,false,false,false,false,false,false,false,false,false,false,false,false,false,false,false,false,false,false,false,false,false,false,false,false,false,false,false,false],"id":25,"left_children":[1,3,5,7,9,11,13,15,17,19,21,23,25,-1,27,29,31,33,35,37,39,41,43,45,47,49,51,53,55,-1,-1,-1,-1,-1,-1,-1,-1,-1,-1,-1,-1,-1,-1,-1,-1,-1,-1,-1,-1,-1,-1,-1,-1,-1,-1,-1,-1],"loss_changes":[1.0413522E13,1.021838E13,1.2231508E13,1.1481832E13,1.5109404E13,1.4410385E13,4.282443E13,1.2780364E13,8.6631315E12,1.9584468E13,1.6829282E13,3.4204367E13,9.561466E12,0E0,2.8670438E13,5.657244E12,3.7569524E12,2.6470454E12,1.1848011E13,7.6728243E12,1.0287342E13,1.3973737E13,1.0753565E13,1.7207924E13,3.389412E13,8.367286E12,2.0485442E12,9.147592E12,1.3194462E13,0E0,0E0,0E0,0E0,0E0,0E0,0E0,0E0,0E0,0E0,0E0,0E0,0E0,0E0,0E0,0E0,0E0,0E0,0E0,0E0,0E0,0E0,0E0,0E0,0E0,0E0,0E0,0E0],"parents":[2147483647,0,0,1,1,2,2,3,3,4,4,5,5,6,6,7,7,8,8,9,9,10,10,11,11,12,12,14,14,15,15,16,16,17,17,18,18,19,19,20,20,21,21,22,22,23,23,24,24,25,25,26,26,27,27,28,28],"right_children":[2,4,6,8,10,12,14,16,18,20,22,24,26,-1,28,30,32,34,36,38,40,42,44,46,48,50,52,54,56,-1,-1,-1,-1,-1,-1,-1,-1,-1,-1,-1,-1,-1,-1,-1,-1,-1,-1,-1,-1,-1,-1,-1,-1,-1,-1,-1,-1],"split_conditions":[1.95E1,5E-1,3.98E2,5E-1,3.5E0,1.9675E3,4.4135E3,2.845E3,2.6725E3,1.095E2,2.5E0,6.85E1,1.255E2,1.5506342E6,1.3985E3,2.605E3,9.35E4,1.675E3,1.74E2,1.4455E3,1.9595E3,3.5E0,1.8225E3,1.9355E3,2.775E3,1.972E3,1.49E5,5.55E0,8.655E3,-4.683137E3,1.0972201E4,-8.182409E4,-2.7595996E4,-2.319831E3,1.8342525E4,3.340552E4,9.2868125E3,3.4944232E2,-5.9999795E3,-7.042216E5,-2.346659E4,2.2977104E4,2.9021096E3,5.0969997E1,-6.84096E3,4.6259172E5,-1.13527984E5,1.2296468E6,1.4389122E5,-3.686487E5,2.2190084E4,-4.4341366E5,1.3715251E4,8.7194086E4,-2.391823E5,-1.3462013E4,7.0860825E5],"split_indices":[5,0,2,4,0,1,13,16,16,2,10,2,0,0,12,16,11,12,2,12,1,14,15,1,16,1,11,9,11,0,0,0,0,0,0,0,0,0,0,0,0,0,0,0,0,0,0,0,0,0,0,0,0,0,0,0,0],"split_type":[0,0,0,0,0,0,0,0,0,0,0,0,0,0,0,0,0,0,0,0,0,0,0,0,0,0,0,0,0,0,0,0,0,0,0,0,0,0,0,0,0,0,0,0,0,0,0,0,0,0,0,0,0,0,0,0,0],"sum_hessian":[2.94557E5,2.94106E5,4.51E2,2.1149E4,2.72957E5,4.04E2,4.7E1,9.35E3,1.1799E4,7.3004E4,1.99953E5,3.5E1,3.69E2,1E0,4.6E1,8.482E3,8.68E2,3.983E3,7.816E3,6.8677E4,4.327E3,1.01515E5,9.8438E4,2.5E1,1E1,3.64E2,5E0,3.5E1,1.1E1,4.849E3,3.633E3,1.36E2,7.32E2,3.313E3,6.7E2,2.936E3,4.88E3,3.2668E4,3.6009E4,1E0,4.326E3,3.222E3,9.8293E4,6.9635E4,2.8803E4,5E0,2E1,4E0,6E0,4E0,3.6E2,4E0,1E0,2.5E1,1E1,3E0,8E0],"tree_param":{"num_deleted":"0","num_feature":"18","num_nodes":"57","size_leaf_vector":"0"}},{"base_weights":[1.0751041E2,-5.7586777E3,5.7311147E3,1.2977837E5,-6.627192E3,5.4996943E3,7.6196894E5,-8.021666E4,3.822669E5,-3.0866948E3,-3.0613625E4,9.446546E3,-1.7959463E4,3.4827066E5,1.9050914E6,-8.49644E3,-5.0157938E5,1.3826799E6,2.2002742E5,-7.692621E3,4.138641E4,3.7864566E4,-4.7308145E4,9.068378E3,4.5547625E5,-1.9436175E5,-2.3999106E3,-3.2529238E4,8.5817244E5,1.2122209E6,2.632666E6,4.837783E5,-7.601568E4,-1.0444309E6,-2.14378E5,-7.215875E3,2.4358498E6,3.4284702E6,1.9252642E5,-5.6396914E3,